{"learner":{"attributes":{"scikit_learn":"{\"_estimator_type\": \"classifier\"}"},"feature_names":["yes_price","volume","days_before_expiry","market_age_days","price_momentum_7d","price_momentum_1d","price_volatility_7d","volume_per_day","price_distance_50","neg_risk","theme_encoded","question_length","has_numbers","spread"],"feature_types":["float","float","int","float","float","float","float","float","float","int","int","float","int","float"],"gradient_booster":{"model":{"cats":{"enc":[],"feature_segments":[],"sorted_idx":[]},"gbtree_model_param":{"num_parallel_tree":"1","num_trees":"200"},"iteration_indptr":[0,1,2,3,4,5,6,7,8,9,10,11,12,13,14,15,16,17,18,19,20,21,22,23,24,25,26,27,28,29,30,31,32,33,34,35,36,37,38,39,40,41,42,43,44,45,46,47,48,49,50,51,52,53,54,55,56,57,58,59,60,61,62,63,64,65,66,67,68,69,70,71,72,73,74,75,76,77,78,79,80,81,82,83,84,85,86,87,88,89,90,91,92,93,94,95,96,97,98,99,100,101,102,103,104,105,106,107,108,109,110,111,112,113,114,115,116,117,118,119,120,121,122,123,124,125,126,127,128,129,130,131,132,133,134,135,136,137,138,139,140,141,142,143,144,145,146,147,148,149,150,151,152,153,154,155,156,157,158,159,160,161,162,163,164,165,166,167,168,169,170,171,172,173,174,175,176,177,178,179,180,181,182,183,184,185,186,187,188,189,190,191,192,193,194,195,196,197,198,199,200],"tree_info":[0,0,0,0,0,0,0,0,0,0,0,0,0,0,0,0,0,0,0,0,0,0,0,0,0,0,0,0,0,0,0,0,0,0,0,0,0,0,0,0,0,0,0,0,0,0,0,0,0,0,0,0,0,0,0,0,0,0,0,0,0,0,0,0,0,0,0,0,0,0,0,0,0,0,0,0,0,0,0,0,0,0,0,0,0,0,0,0,0,0,0,0,0,0,0,0,0,0,0,0,0,0,0,0,0,0,0,0,0,0,0,0,0,0,0,0,0,0,0,0,0,0,0,0,0,0,0,0,0,0,0,0,0,0,0,0,0,0,0,0,0,0,0,0,0,0,0,0,0,0,0,0,0,0,0,0,0,0,0,0,0,0,0,0,0,0,0,0,0,0,0,0,0,0,0,0,0,0,0,0,0,0,0,0,0,0,0,0,0,0,0,0,0,0,0,0,0,0,0,0],"trees":[{"base_weights":[1.3190753E-7,-5.1098447E-2,7.271015E0,5.074202E-1,2.1011107E0,9.189621E-1,2.4228624E-1,1.2148414E-1,-2.0829223E-2],"categories":[],"categories_nodes":[],"categories_segments":[],"categories_sizes":[],"default_left":[0,0,0,0,0,1,0,0,0],"id":0,"left_children":[1,-1,3,-1,5,7,-1,-1,-1],"loss_changes":[1.3515645E3,0E0,3.1211255E2,0E0,2.56422E1,1.6582783E1,0E0,0E0,0E0],"parents":[2147483647,0,0,2,2,4,4,5,5],"right_children":[2,-1,4,-1,6,8,-1,-1,-1],"split_conditions":[1.5E-1,-5.1098447E-2,3.045E-1,5.074202E-1,9.980859E3,3.9E1,2.4228624E-1,1.2148414E-1,-2.0829223E-2],"split_indices":[8,0,8,0,1,11,0,0,0],"split_type":[0,0,0,0,0,0,0,0,0],"sum_hessian":[1.7988795E2,1.5847337E2,2.1414593E1,1.3138942E1,8.275652E0,6.7172503E0,1.5584021E0,2.767507E0,3.949743E0],"tree_param":{"num_deleted":"0","num_feature":"14","num_nodes":"9","size_leaf_vector":"1"}},{"base_weights":[-7.2682197E-3,-5.1012266E-2,4.9629564E0,1.5161631E0,6.0280704E0,5.242408E-1,1.8407944E-1,6.3256516E0,7.564257E-2,1.4776012E-1,-2.548624E-2,1.9885196E-1,3.6094436E-1],"categories":[],"categories_nodes":[],"categories_segments":[],"categories_sizes":[],"default_left":[0,0,0,0,1,0,0,0,0,0,0,0,0],"id":1,"left_children":[1,-1,3,5,7,9,-1,11,-1,-1,-1,-1,-1],"loss_changes":[9.212511E2,0E0,1.0459265E2,1.6647959E1,2.1777466E1,1.9347397E1,0E0,1.6547974E1,0E0,0E0,0E0,0E0,0E0],"parents":[2147483647,0,0,2,2,3,3,4,4,5,5,7,7],"right_children":[2,-1,4,6,8,10,-1,12,-1,-1,-1,-1,-1],"split_conditions":[1.5E-1,-5.1012266E-2,2E-1,7.925877E4,1.248E-1,3.9E1,1.8407944E-1,1E0,7.564257E-2,1.4776012E-1,-2.548624E-2,1.9885196E-1,3.6094436E-1],"split_indices":[8,0,0,1,6,11,0,12,0,0,0,0,0],"split_type":[0,0,0,0,0,0,0,0,0,0,0,0,0],"sum_hessian":[1.8097377E2,1.5099446E2,2.9979319E1,7.649242E0,2.2330076E1,6.098007E0,1.5512348E0,2.0573212E1,1.7568645E0,1.2652194E0,4.832788E0,7.1709085E0,1.3402303E1],"tree_param":{"num_deleted":"0","num_feature":"14","num_nodes":"13","size_leaf_vector":"1"}},{"base_weights":[-8.84255E-3,-5.092895E-2,3.8434505E0,1.4123425E0,4.446119E0,6.2692714E-1,1.8116845E-1,4.5767536E0,2.158217E-2,1.4950381E-1,-1.984786E-2,1.6924039E-1,2.7087304E-1],"categories":[],"categories_nodes":[],"categories_segments":[],"categories_sizes":[],"default_left":[0,0,0,1,1,0,0,0,0,0,0,0,0],"id":2,"left_children":[1,-1,3,5,7,9,-1,11,-1,-1,-1,-1,-1],"loss_changes":[7.112101E2,0E0,4.9355713E1,1.3372929E1,1.3738159E1,2.0196936E1,0E0,1.0638062E1,0E0,0E0,0E0,0E0,0E0],"parents":[2147483647,0,0,2,2,3,3,4,4,5,5,7,7],"right_children":[2,-1,4,6,8,10,-1,12,-1,-1,-1,-1,-1],"split_conditions":[1.5E-1,-5.092895E-2,2E-1,2.58349E4,8.7E1,3.9E1,1.8116845E-1,3E-1,2.158217E-2,1.4950381E-1,-1.984786E-2,1.6924039E-1,2.7087304E-1],"split_indices":[8,0,0,7,11,11,0,0,0,0,0,0,0],"split_type":[0,0,0,0,0,0,0,0,0,0,0,0,0],"sum_hessian":[1.8083328E2,1.4386101E2,3.6972263E1,8.008837E0,2.8963428E1,6.8567E0,1.1521366E0,2.7914984E1,1.0484444E0,1.4922429E0,5.364457E0,1.36244755E1,1.4290507E1],"tree_param":{"num_deleted":"0","num_feature":"14","num_nodes":"13","size_leaf_vector":"1"}},{"base_weights":[-9.330197E-3,-5.0848264E-2,3.1330605E0,4.1699395E0,2.2856252E0,6.4017005E-2,4.4418178E0,1.4925268E0,3.3912072E0,2.3128796E-1,4.5426007E-2,4.3151118E-2,1.797E-1,-2.1589422E-3,1.8842636E-1],"categories":[],"categories_nodes":[],"categories_segments":[],"categories_sizes":[],"default_left":[0,0,0,0,0,0,1,1,0,0,0,0,0,0,0],"id":3,"left_children":[1,-1,3,5,7,-1,9,11,13,-1,-1,-1,-1,-1,-1],"loss_changes":[5.7734827E2,0E0,2.937082E1,9.002319E0,1.8240204E1,0E0,6.6411743E0,1.97317E1,1.3528839E1,0E0,0E0,0E0,0E0,0E0,0E0],"parents":[2147483647,0,0,2,2,3,3,4,4,6,6,7,7,8,8],"right_children":[2,-1,4,6,8,-1,10,12,14,-1,-1,-1,-1,-1,-1],"split_conditions":[1.5E-1,-5.0848264E-2,4.7E1,-1.8E-1,3.2E-1,6.4017005E-2,1.315E-1,2.58349E4,2.7778E2,2.3128796E-1,4.5426007E-2,4.3151118E-2,1.797E-1,-2.1589422E-3,1.8842636E-1],"split_indices":[8,0,11,5,0,0,6,7,7,0,0,0,0,0,0],"split_type":[0,0,0,0,0,0,0,0,0,0,0,0,0,0,0],"sum_hessian":[1.8033058E2,1.3705809E2,4.3272503E1,1.7697762E1,2.557474E1,2.0129385E0,1.5684822E1,1.6260284E1,9.314456E0,1.4614795E1,1.0700274E0,1.35977125E1,2.6625717E0,1.0096982E0,8.304758E0],"tree_param":{"num_deleted":"0","num_feature":"14","num_nodes":"15","size_leaf_vector":"1"}},{"base_weights":[-8.941346E-3,-5.0769985E-2,2.6412807E0,2.9889529E0,1.3267844E0,2.0568848E0,3.4485106E0,-5.3178243E-2,2.0263126E0,1.5813534E-1,5.6953978E-2,3.4068264E-2,1.9894339E-1,7.086098E-2,-3.9162096E-2,-3.0343605E-2,1.3341206E-1],"categories":[],"categories_nodes":[],"categories_segments":[],"categories_sizes":[],"default_left":[0,0,0,0,0,0,0,0,0,0,0,0,0,0,0,0,0],"id":4,"left_children":[1,-1,3,5,7,9,11,13,15,-1,-1,-1,-1,-1,-1,-1,-1],"loss_changes":[4.8424445E2,0E0,1.8871002E1,9.49173E0,1.1933151E1,1.188961E1,3.3178223E1,6.579772E0,1.5403618E1,0E0,0E0,0E0,0E0,0E0,0E0,0E0,0E0],"parents":[2147483647,0,0,2,2,3,3,4,4,5,5,6,6,7,7,8,8],"right_children":[2,-1,4,6,8,10,12,14,16,-1,-1,-1,-1,-1,-1,-1,-1],"split_conditions":[1.5E-1,-5.0769985E-2,3.045E-1,5.44E-2,1.4E0,7.856407E3,8.1072E2,4.8E1,8.67E2,1.5813534E-1,5.6953978E-2,3.4068264E-2,1.9894339E-1,7.086098E-2,-3.9162096E-2,-3.0343605E-2,1.3341206E-1],"split_indices":[8,0,8,6,3,1,7,11,1,0,0,0,0,0,0,0,0],"split_type":[0,0,0,0,0,0,0,0,0,0,0,0,0,0,0,0,0],"sum_hessian":[1.7954047E2,1.3057114E2,4.896933E1,3.7719128E1,1.12502E1,1.4264296E1,2.3454832E1,4.0953207E0,7.154879E0,5.3601494E0,8.904146E0,4.1398473E0,1.9314985E1,1.0464574E0,3.0488634E0,1.4130746E0,5.7418046E0],"tree_param":{"num_deleted":"0","num_feature":"14","num_nodes":"17","size_leaf_vector":"1"}},{"base_weights":[-8.976807E-3,-5.06939E-2,2.270569E0,2.4062722E0,2.6328155E-1,1.2998855E0,2.6523085E0,-3.24345E-2,4.9804512E-2,8.4680356E-2,-1.8669048E-2,7.964996E-2,1.5771002E-1],"categories":[],"categories_nodes":[],"categories_segments":[],"categories_sizes":[],"default_left":[0,0,0,0,0,0,0,0,0,0,0,0,0],"id":5,"left_children":[1,-1,3,5,7,9,11,-1,-1,-1,-1,-1,-1],"loss_changes":[4.1386353E2,0E0,1.4424042E1,1.0613434E1,3.7359211E0,8.115284E0,1.6931152E1,0E0,0E0,0E0,0E0,0E0,0E0],"parents":[2147483647,0,0,2,2,3,3,4,4,5,5,6,6],"right_children":[2,-1,4,6,8,10,12,-1,-1,-1,-1,-1,-1],"split_conditions":[1.5E-1,-5.06939E-2,4.17E-1,8.1072E2,2.2E0,7E1,5.44E-2,-3.24345E-2,4.9804512E-2,8.4680356E-2,-1.8669048E-2,7.964996E-2,1.5771002E-1],"split_indices":[8,0,8,7,3,11,6,0,0,0,0,0,0],"split_type":[0,0,0,0,0,0,0,0,0,0,0,0,0],"sum_hessian":[1.786648E2,1.2438631E2,5.4278477E1,5.065516E1,3.623319E0,1.0358393E1,4.0296764E1,1.6654617E0,1.9578574E0,8.375477E0,1.982916E0,1.4296372E1,2.6000393E1],"tree_param":{"num_deleted":"0","num_feature":"14","num_nodes":"13","size_leaf_vector":"1"}},{"base_weights":[-9.776363E-3,-5.06198E-2,1.9765705E0,2.5171523E0,1.4954493E0,2.6175244E0,1.2905205E-2,1.1351988E0,1.3638987E-1,5.463716E-2,1.425026E-1,7.1695456E-3,7.957279E-2],"categories":[],"categories_nodes":[],"categories_segments":[],"categories_sizes":[],"default_left":[0,0,0,1,1,0,0,0,0,0,0,0,0],"id":6,"left_children":[1,-1,3,5,7,9,-1,11,-1,-1,-1,-1,-1],"loss_changes":[3.5810706E2,0E0,1.192363E1,5.4329987E0,1.2165665E1,5.992264E0,0E0,1.258461E1,0E0,0E0,0E0,0E0,0E0],"parents":[2147483647,0,0,2,2,3,3,4,4,5,5,7,7],"right_children":[2,-1,4,6,8,10,-1,12,-1,-1,-1,-1,-1],"split_conditions":[1.5E-1,-5.06198E-2,4.7E1,6.525824E4,3.143786E4,2.03E-2,1.2905205E-2,2.35E-1,1.3638987E-1,5.463716E-2,1.425026E-1,7.1695456E-3,7.957279E-2],"split_indices":[8,0,11,7,7,6,0,0,0,0,0,0,0],"split_type":[0,0,0,0,0,0,0,0,0,0,0,0,0],"sum_hessian":[1.7780844E2,1.1849019E2,5.9318256E1,2.5940256E1,3.3378002E1,2.4684797E1,1.2554588E0,2.7314392E1,6.0636086E0,4.0204487E0,2.0664349E1,9.020336E0,1.8294056E1],"tree_param":{"num_deleted":"0","num_feature":"14","num_nodes":"13","size_leaf_vector":"1"}},{"base_weights":[-9.49787E-3,-5.0547488E-2,1.7496482E0,1.3140221E0,2.216641E0,2.1722631E0,6.989951E-1,2.3455493E0,3.0387447E-3,8.354641E-2,1.881899E-1,-4.403126E-2,5.4915786E-2,-6.9538304E-3,1.2291211E-1],"categories":[],"categories_nodes":[],"categories_segments":[],"categories_sizes":[],"default_left":[0,0,0,0,0,0,0,0,0,0,0,0,0,0,0],"id":7,"left_children":[1,-1,3,5,7,9,11,13,-1,-1,-1,-1,-1,-1,-1],"loss_changes":[3.148221E2,0E0,1.0275833E1,1.7482315E1,8.148224E0,5.3225174E0,1.512447E1,8.216232E0,0E0,0E0,0E0,0E0,0E0,0E0,0E0],"parents":[2147483647,0,0,2,2,3,3,4,4,5,5,6,6,7,7],"right_children":[2,-1,4,6,8,10,12,14,-1,-1,-1,-1,-1,-1,-1],"split_conditions":[1.5E-1,-5.0547488E-2,3E-1,3.9E1,8.35E-1,3.6E1,5.1E1,-1.835E-1,3.0387447E-3,8.354641E-2,1.881899E-1,-4.403126E-2,5.4915786E-2,-6.9538304E-3,1.2291211E-1],"split_indices":[8,0,0,11,0,11,11,5,0,0,0,0,0,0,0],"split_type":[0,0,0,0,0,0,0,0,0,0,0,0,0,0,0],"sum_hessian":[1.7669954E2,1.12869934E2,6.3829605E1,3.499702E1,2.8832584E1,1.3552777E1,2.1444244E1,2.712281E1,1.7097744E0,1.1865133E1,1.6876442E0,4.0839133E0,1.736033E1,1.1666487E0,2.5956161E1],"tree_param":{"num_deleted":"0","num_feature":"14","num_nodes":"15","size_leaf_vector":"1"}},{"base_weights":[-9.178299E-3,-5.047677E-2,1.5645663E0,1.6485363E0,1.5983255E-1,8.845711E-1,1.815117E0,-3.335324E-2,8.210333E-1,-7.0865303E-3,6.842711E-2,5.588881E-2,1.06440246E-1,7.243143E-2,-6.14633E-3],"categories":[],"categories_nodes":[],"categories_segments":[],"categories_sizes":[],"default_left":[0,0,0,0,1,0,0,0,1,0,0,0,0,0,0],"id":8,"left_children":[1,-1,3,5,7,9,11,-1,13,-1,-1,-1,-1,-1,-1],"loss_changes":[2.794381E2,0E0,7.8733826E0,6.664444E0,3.2804885E0,6.9409943E0,9.082977E0,0E0,2.0890603E0,0E0,0E0,0E0,0E0,0E0,0E0],"parents":[2147483647,0,0,2,2,3,3,4,4,5,5,6,6,8,8],"right_children":[2,-1,4,6,8,10,12,-1,14,-1,-1,-1,-1,-1,-1],"split_conditions":[1.5E-1,-5.047677E-2,4.17E-1,8.1072E2,5.44E-2,8.2475366E2,5.44E-2,-3.335324E-2,3.3E1,-7.0865303E-3,6.842711E-2,5.588881E-2,1.06440246E-1,7.243143E-2,-6.14633E-3],"split_indices":[8,0,8,7,6,1,6,0,11,0,0,0,0,0,0],"split_type":[0,0,0,0,0,0,0,0,0,0,0,0,0,0,0],"sum_hessian":[1.7549588E2,1.0751319E2,6.798268E1,6.3984367E1,3.9983184E0,1.2583702E1,5.140066E1,1.7726164E0,2.225702E0,4.2590904E0,8.324612E0,1.736373E1,3.4036934E1,1.0157485E0,1.2099534E0],"tree_param":{"num_deleted":"0","num_feature":"14","num_nodes":"15","size_leaf_vector":"1"}},{"base_weights":[-9.389908E-3,-5.0407466E-2,1.4073316E0,1.0620345E0,1.7701449E0,1.7513031E0,5.502337E-1,2.1200035E0,1.0016414E0,6.675985E-2,1.5731432E-1,-4.4323273E-2,4.4496447E-2,1.10383205E-1,1.5647275E-2,6.6458784E-2,-3.489361E-2],"categories":[],"categories_nodes":[],"categories_segments":[],"categories_sizes":[],"default_left":[0,0,0,0,1,0,0,0,1,0,0,0,0,0,0,0,0],"id":9,"left_children":[1,-1,3,5,7,9,11,13,15,-1,-1,-1,-1,-1,-1,-1,-1],"loss_changes":[2.494837E2,0E0,7.2537384E0,1.30960045E1,7.0320206E0,5.391205E0,1.266298E1,2.8739243E0,7.912528E0,0E0,0E0,0E0,0E0,0E0,0E0,0E0,0E0],"parents":[2147483647,0,0,2,2,3,3,4,4,5,5,6,6,7,7,8,8],"right_children":[2,-1,4,6,8,10,12,14,16,-1,-1,-1,-1,-1,-1,-1,-1],"split_conditions":[1.5E-1,-5.0407466E-2,3E-1,3.9E1,4.9E1,3.6E1,5.1E1,8.35E-1,1.021E-1,6.675985E-2,1.5731432E-1,-4.4323273E-2,4.4496447E-2,1.10383205E-1,1.5647275E-2,6.6458784E-2,-3.489361E-2],"split_indices":[8,0,0,11,11,11,11,0,6,0,0,0,0,0,0,0,0],"split_type":[0,0,0,0,0,0,0,0,0,0,0,0,0,0,0,0,0],"sum_hessian":[1.7431537E2,1.0240814E2,7.190723E1,3.885516E1,3.3052067E1,1.5524995E1,2.3330164E1,2.1503885E1,1.1548181E1,1.3465536E1,2.0594592E0,4.1535673E0,1.9176596E1,2.0297558E1,1.2063274E0,9.864901E0,1.6832793E0],"tree_param":{"num_deleted":"0","num_feature":"14","num_nodes":"17","size_leaf_vector":"1"}},{"base_weights":[-8.736125E-3,-5.033939E-2,1.2787441E0,1.6077319E0,9.750836E-1,6.2457573E-1,1.7816944E0,5.065732E-1,1.4448166E0,-2.4806498E-2,6.500452E-2,9.414541E-2,1.6479302E-3,4.566226E-2,-3.5883155E-2,2.9213956E-2,1.0000407E-1],"categories":[],"categories_nodes":[],"categories_segments":[],"categories_sizes":[],"default_left":[0,0,0,0,0,0,1,0,0,0,0,0,0,0,0,0,0],"id":10,"left_children":[1,-1,3,5,7,9,11,13,15,-1,-1,-1,-1,-1,-1,-1,-1],"loss_changes":[2.2479639E2,0E0,6.0644836E0,4.8952484E0,8.570477E0,5.808856E0,5.125206E0,1.1957908E1,8.658909E0,0E0,0E0,0E0,0E0,0E0,0E0,0E0,0E0],"parents":[2147483647,0,0,2,2,3,3,4,4,5,5,6,6,7,7,8,8],"right_children":[2,-1,4,6,8,10,12,14,16,-1,-1,-1,-1,-1,-1,-1,-1],"split_conditions":[1.5E-1,-5.033939E-2,4.7E1,1E0,9.351769E3,3.7E1,5.177406E4,2.975E-1,1.65E-2,-2.4806498E-2,6.500452E-2,9.414541E-2,1.6479302E-3,4.566226E-2,-3.5883155E-2,2.9213956E-2,1.0000407E-1],"split_indices":[8,0,11,12,1,11,7,8,5,0,0,0,0,0,0,0,0],"split_type":[0,0,0,0,0,0,0,0,0,0,0,0,0,0,0,0,0],"sum_hessian":[1.7294077E2,9.754339E1,7.5397385E1,3.4128185E1,4.1269196E1,5.820977E0,2.8307209E1,2.1702057E1,1.9567139E1,2.2889955E0,3.5319817E0,2.6685946E1,1.6212634E0,1.6481268E1,5.220789E0,8.478927E0,1.1088212E1],"tree_param":{"num_deleted":"0","num_feature":"14","num_nodes":"17","size_leaf_vector":"1"}},{"base_weights":[-8.595173E-3,-5.0272357E-2,1.1664964E0,8.8315386E-1,1.4594787E0,1.4317653E0,4.56003E-1,3.4111527E-1,1.6222737E0,5.386855E-2,1.332746E-1,-4.451177E-2,3.8030084E-2,-1.8425543E-2,5.576703E-2,-6.5219514E-3,8.444613E-2],"categories":[],"categories_nodes":[],"categories_segments":[],"categories_sizes":[],"default_left":[0,0,0,0,0,0,0,0,0,0,0,0,0,0,0,0,0],"id":11,"left_children":[1,-1,3,5,7,9,11,13,15,-1,-1,-1,-1,-1,-1,-1,-1],"loss_changes":[2.0333096E2,0E0,5.3249283E0,9.431774E0,6.2989426E0,5.160736E0,1.1200508E1,3.7342494E0,4.0271454E0,0E0,0E0,0E0,0E0,0E0,0E0,0E0,0E0],"parents":[2147483647,0,0,2,2,3,3,4,4,5,5,6,6,7,7,8,8],"right_children":[2,-1,4,6,8,10,12,14,16,-1,-1,-1,-1,-1,-1,-1,-1],"split_conditions":[1.5E-1,-5.0272357E-2,3E-1,3.9E1,1.99E-2,3.6E1,5.1E1,8.514305E3,-1.835E-1,5.386855E-2,1.332746E-1,-4.451177E-2,3.8030084E-2,-1.8425543E-2,5.576703E-2,-6.5219514E-3,8.444613E-2],"split_indices":[8,0,0,11,6,11,11,1,5,0,0,0,0,0,0,0,0],"split_type":[0,0,0,0,0,0,0,0,0,0,0,0,0,0,0,0,0],"sum_hessian":[1.7157935E2,9.2908066E1,7.867128E1,4.2034336E1,3.663694E1,1.7371431E1,2.4662905E1,5.0487275E0,3.1588213E1,1.4950179E1,2.4212518E0,4.195842E0,2.0467062E1,2.9076815E0,2.141046E0,1.1221137E0,3.0466099E1],"tree_param":{"num_deleted":"0","num_feature":"14","num_nodes":"17","size_leaf_vector":"1"}},{"base_weights":[-8.150879E-3,-5.020622E-2,1.069876E0,1.4736127E0,8.8404256E-1,1.6051348E0,1.4840503E-1,7.1434563E-1,1.6502935E0,8.781114E-2,6.321975E-3,2.2019014E-2,-8.393529E-3,1.6040277E-2,6.133854E-2,1.6390704E-2,9.440606E-2],"categories":[],"categories_nodes":[],"categories_segments":[],"categories_sizes":[],"default_left":[0,0,1,0,0,1,0,0,0,0,0,0,0,0,0,0,0],"id":12,"left_children":[1,-1,3,5,7,9,11,13,15,-1,-1,-1,-1,-1,-1,-1,-1],"loss_changes":[1.8486714E2,0E0,4.901123E0,4.0431175E0,6.5090218E0,4.747574E0,3.8047796E-1,9.723175E0,2.512598E0,0E0,0E0,0E0,0E0,0E0,0E0,0E0,0E0],"parents":[2147483647,0,0,2,2,3,3,4,4,5,5,6,6,7,7,8,8],"right_children":[2,-1,4,6,8,10,12,14,16,-1,-1,-1,-1,-1,-1,-1,-1],"split_conditions":[1.5E-1,-5.020622E-2,4.2E-3,3.045E-1,3.143786E4,5.177406E4,5.9E1,3.2E-1,1.9E-1,8.781114E-2,6.321975E-3,2.2019014E-2,-8.393529E-3,1.6040277E-2,6.133854E-2,1.6390704E-2,9.440606E-2],"split_indices":[8,0,6,8,7,7,11,0,8,0,0,0,0,0,0,0,0],"split_type":[0,0,0,0,0,0,0,0,0,0,0,0,0,0,0,0,0],"sum_hessian":[1.701793E2,8.849167E1,8.168763E1,2.356379E1,5.8123844E1,2.124415E1,2.3196404E0,4.9167316E1,8.956527E0,1.910444E1,2.1397097E0,1.0021211E0,1.3175193E0,2.8729357E1,2.043796E1,1.7277057E0,7.2288213E0],"tree_param":{"num_deleted":"0","num_feature":"14","num_nodes":"17","size_leaf_vector":"1"}},{"base_weights":[-7.5633517E-3,-5.0140798E-2,9.858837E-1,1.2480373E0,7.4313843E-1,4.5417374E-1,1.3880895E0,1.519704E0,4.940503E-1,-1.0011814E-2,7.266154E-2,7.327255E-2,-9.7484264E-4,9.7269475E-2,-3.365261E-2,3.3568281E-3,4.4832293E-2],"categories":[],"categories_nodes":[],"categories_segments":[],"categories_sizes":[],"default_left":[0,0,0,0,0,0,1,0,0,0,0,0,0,0,0,0,0],"id":13,"left_children":[1,-1,3,5,7,9,11,13,15,-1,-1,-1,-1,-1,-1,-1,-1],"loss_changes":[1.68807E2,0E0,4.510071E0,3.7734146E0,8.309137E0,5.1461935E0,3.6419678E0,1.147731E1,6.289566E0,0E0,0E0,0E0,0E0,0E0,0E0,0E0,0E0],"parents":[2147483647,0,0,2,2,3,3,4,4,5,5,6,6,7,7,8,8],"right_children":[2,-1,4,6,8,10,12,14,16,-1,-1,-1,-1,-1,-1,-1,-1],"split_conditions":[1.5E-1,-5.0140798E-2,4.7E1,1E0,1E0,8.002277E4,5.177406E4,4.4E0,9.385523E3,-1.0011814E-2,7.266154E-2,7.327255E-2,-9.7484264E-4,9.7269475E-2,-3.365261E-2,3.3568281E-3,4.4832293E-2],"split_indices":[8,0,11,12,2,1,7,3,1,0,0,0,0,0,0,0,0],"split_type":[0,0,0,0,0,0,0,0,0,0,0,0,0,0,0,0,0],"sum_hessian":[1.687311E2,8.428424E1,8.4446846E1,3.8609272E1,4.5837574E1,6.42621E0,3.2183064E1,9.893185E0,3.594439E1,4.36596E0,2.0602498E0,3.0467453E1,1.7156099E0,8.3793E0,1.5138849E0,1.8011593E1,1.7932796E1],"tree_param":{"num_deleted":"0","num_feature":"14","num_nodes":"17","size_leaf_vector":"1"}},{"base_weights":[-7.2524324E-3,-5.007592E-2,9.1039217E-1,1.1656237E0,6.813574E-1,1.2352362E0,-1.5873557E-2,4.5737264E-1,1.3259269E0,1.7719148E-2,6.861635E-2,3.2952517E-2,-2.3143468E-2,1.2453901E-1,4.194853E-2],"categories":[],"categories_nodes":[],"categories_segments":[],"categories_sizes":[],"default_left":[0,0,0,1,0,0,0,1,0,0,0,0,0,0,0],"id":14,"left_children":[1,-1,3,5,7,9,-1,11,13,-1,-1,-1,-1,-1,-1],"loss_changes":[1.5450836E2,0E0,4.3541183E0,4.5472374E0,6.442507E0,4.180485E0,0E0,7.3130193E0,4.753599E0,0E0,0E0,0E0,0E0,0E0,0E0],"parents":[2147483647,0,0,2,2,3,3,4,4,5,5,7,7,8,8],"right_children":[2,-1,4,6,8,10,-1,12,14,-1,-1,-1,-1,-1,-1],"split_conditions":[1.5E-1,-5.007592E-2,2.25E-1,7.9E1,9.980859E3,2.03E-2,-1.5873557E-2,8.29662E3,8.341981E4,1.7719148E-2,6.861635E-2,3.2952517E-2,-2.3143468E-2,1.2453901E-1,4.194853E-2],"split_indices":[8,0,8,11,1,6,0,7,1,0,0,0,0,0,0],"split_type":[0,0,0,0,0,0,0,0,0,0,0,0,0,0,0],"sum_hessian":[1.6734663E2,8.027618E1,8.7070465E1,3.9246128E1,4.782434E1,3.7646236E1,1.5998913E0,3.6760002E1,1.1064341E1,5.5527925E0,3.209344E1,3.0384785E1,6.3752165E0,2.0486784E0,9.015661E0],"tree_param":{"num_deleted":"0","num_feature":"14","num_nodes":"15","size_leaf_vector":"1"}},{"base_weights":[-6.798541E-3,-5.0011437E-2,8.4360456E-1,1.1830351E0,6.881934E-1,1.28996E0,8.67331E-2,5.478301E-1,1.3082522E0,1.290338E-2,7.150919E-2,2.858825E-2,-2.6714567E-2,1.05439E-2,4.909997E-2,1.0614097E-1,4.0350996E-2],"categories":[],"categories_nodes":[],"categories_segments":[],"categories_sizes":[],"default_left":[0,0,1,0,0,1,1,0,0,0,0,0,0,0,0,0,0],"id":15,"left_children":[1,-1,3,5,7,9,11,13,15,-1,-1,-1,-1,-1,-1,-1,-1],"loss_changes":[1.4188762E2,0E0,3.9595108E0,3.0566216E0,4.893816E0,3.1840477E0,1.351947E0,7.734522E0,2.8509617E0,0E0,0E0,0E0,0E0,0E0,0E0,0E0,0E0],"parents":[2147483647,0,0,2,2,3,3,4,4,5,5,6,6,7,7,8,8],"right_children":[2,-1,4,6,8,10,12,14,16,-1,-1,-1,-1,-1,-1,-1,-1],"split_conditions":[1.5E-1,-5.0011437E-2,4.2E-3,3.045E-1,3.143786E4,2.5E1,3.9E1,3.2E-1,8.4507805E4,1.290338E-2,7.150919E-2,2.858825E-2,-2.6714567E-2,1.05439E-2,4.909997E-2,1.0614097E-1,4.0350996E-2],"split_indices":[8,0,6,8,7,11,11,0,1,0,0,0,0,0,0,0,0],"split_type":[0,0,0,0,0,0,0,0,0,0,0,0,0,0,0,0,0],"sum_hessian":[1.659521E2,7.645829E1,8.9493805E1,2.6029963E1,6.346384E1,2.3555859E1,2.4741035E0,5.328515E1,1.0178691E1,3.1578643E0,2.0397995E1,1.4336866E0,1.0404168E0,3.0837973E1,2.2447178E1,2.6450088E0,7.533682E0],"tree_param":{"num_deleted":"0","num_feature":"14","num_nodes":"17","size_leaf_vector":"1"}},{"base_weights":[-5.974396E-3,-4.9947195E-2,7.8545815E-1,8.317991E-1,-3.8956374E-2,5.028016E-1,9.679956E-1,-3.5629015E-2,5.145954E-1,-1.898071E-2,4.8537645E-2,5.194952E-2,2.7096432E-3,6.768963E-2,-1.5698954E-2],"categories":[],"categories_nodes":[],"categories_segments":[],"categories_sizes":[],"default_left":[0,0,0,0,0,0,1,0,0,0,0,0,0,0,0],"id":16,"left_children":[1,-1,3,5,7,9,11,-1,13,-1,-1,-1,-1,-1,-1],"loss_changes":[1.308064E2,0E0,3.5711784E0,3.4449081E0,2.5610676E0,1.1835394E1,3.8993607E0,0E0,3.074988E0,0E0,0E0,0E0,0E0,0E0,0E0],"parents":[2147483647,0,0,2,2,3,3,4,4,5,5,6,6,8,8],"right_children":[2,-1,4,6,8,10,12,-1,14,-1,-1,-1,-1,-1,-1],"split_conditions":[1.5E-1,-4.9947195E-2,4.17E-1,1E0,2.2E0,9.351769E3,1.4E-1,-3.5629015E-2,3.4E0,-1.898071E-2,4.8537645E-2,5.194952E-2,2.7096432E-3,6.768963E-2,-1.5698954E-2],"split_indices":[8,0,8,12,3,1,5,0,3,0,0,0,0,0,0],"split_type":[0,0,0,0,0,0,0,0,0,0,0,0,0,0,0],"sum_hessian":[1.6444981E2,7.282183E1,9.162798E1,8.6743126E1,4.8848515E0,2.6769712E1,5.9973415E1,2.0738592E0,2.8109925E0,9.342096E0,1.7427616E1,5.5522766E1,4.4506493E0,1.081622E0,1.7293705E0],"tree_param":{"num_deleted":"0","num_feature":"14","num_nodes":"15","size_leaf_vector":"1"}},{"base_weights":[-6.334144E-3,-4.9883023E-2,7.2931063E-1,9.426021E-1,5.3333205E-1,3.351856E-1,1.0458513E0,1.1810901E0,3.2317403E-1,-2.8432438E-2,4.3791287E-2,5.548997E-2,-5.2219736E-3,8.211612E-2,-1.5715746E-2,8.372399E-3,6.2085252E-2],"categories":[],"categories_nodes":[],"categories_segments":[],"categories_sizes":[],"default_left":[0,0,0,0,0,0,1,0,1,0,0,0,0,0,0,0,0],"id":17,"left_children":[1,-1,3,5,7,9,11,13,15,-1,-1,-1,-1,-1,-1,-1,-1],"loss_changes":[1.20457634E2,0E0,3.4608383E0,2.415306E0,6.658904E0,4.3480954E0,2.8539696E0,8.9947605E0,5.5746546E0,0E0,0E0,0E0,0E0,0E0,0E0,0E0,0E0],"parents":[2147483647,0,0,2,2,3,3,4,4,5,5,6,6,7,7,8,8],"right_children":[2,-1,4,6,8,10,12,14,16,-1,-1,-1,-1,-1,-1,-1,-1],"split_conditions":[1.5E-1,-4.9883023E-2,4.7E1,1E0,1E0,3.7E1,5.177406E4,3.3E0,1.0602812E5,-2.8432438E-2,4.3791287E-2,5.548997E-2,-5.2219736E-3,8.211612E-2,-1.5715746E-2,8.372399E-3,6.2085252E-2],"split_indices":[8,0,11,12,2,11,7,3,7,0,0,0,0,0,0,0,0],"split_type":[0,0,0,0,0,0,0,0,0,0,0,0,0,0,0,0,0],"sum_hessian":[1.6317924E2,6.935839E1,9.382085E1,4.310175E1,5.0719097E1,6.878984E0,3.6222763E1,1.1292589E1,3.942651E1,2.5552866E0,4.323697E0,3.4348434E1,1.8743283E0,8.555534E0,2.7370548E0,3.4722088E1,4.7044196E0],"tree_param":{"num_deleted":"0","num_feature":"14","num_nodes":"17","size_leaf_vector":"1"}},{"base_weights":[-5.9969686E-3,-4.9818784E-2,6.805736E-1,8.8861823E-1,4.9500266E-1,6.5232617E-1,1.3093624E0,3.0430695E-1,1.04032E0,4.5025576E-2,-5.4981424E-3,7.755663E-2,-4.9729244E-4,2.3860356E-2,-2.5366196E-2,1.0208239E-1,3.1624116E-2],"categories":[],"categories_nodes":[],"categories_segments":[],"categories_sizes":[],"default_left":[0,0,0,0,0,1,0,1,0,0,0,0,0,0,0,0,0],"id":18,"left_children":[1,-1,3,5,7,9,11,13,15,-1,-1,-1,-1,-1,-1,-1,-1],"loss_changes":[1.1137827E2,0E0,3.295082E0,3.5552826E0,5.235511E0,5.849308E0,4.786455E0,5.9916105E0,4.189025E0,0E0,0E0,0E0,0E0,0E0,0E0,0E0,0E0],"parents":[2147483647,0,0,2,2,3,3,4,4,5,5,6,6,7,7,8,8],"right_children":[2,-1,4,6,8,10,12,14,16,-1,-1,-1,-1,-1,-1,-1,-1],"split_conditions":[1.5E-1,-4.9818784E-2,2.25E-1,3.45E-1,9.980859E3,4.8E1,2E0,8.29662E3,8.341981E4,4.5025576E-2,-5.4981424E-3,7.755663E-2,-4.9729244E-4,2.3860356E-2,-2.5366196E-2,1.0208239E-1,3.1624116E-2],"split_indices":[8,0,8,0,1,11,10,7,1,0,0,0,0,0,0,0,0],"split_type":[0,0,0,0,0,0,0,0,0,0,0,0,0,0,0,0,0],"sum_hessian":[1.6180275E2,6.605996E1,9.574279E1,4.335203E1,5.2390762E1,2.9394402E1,1.395763E1,3.9971054E1,1.2419708E1,2.2037973E1,7.3564277E0,1.1647455E1,2.3101742E0,3.3291145E1,6.6799088E0,2.4350705E0,9.984637E0],"tree_param":{"num_deleted":"0","num_feature":"14","num_nodes":"17","size_leaf_vector":"1"}},{"base_weights":[-5.3071906E-3,-4.9754318E-2,6.370531E-1,9.012805E-1,5.013217E-1,-2.0759946E-2,9.828899E-1,2.5548318E-1,7.928987E-1,5.2969247E-2,-2.794665E-2,3.3375956E-3,5.9887685E-2,-4.068121E-2,4.673773E-2],"categories":[],"categories_nodes":[],"categories_segments":[],"categories_sizes":[],"default_left":[0,0,1,0,0,0,0,0,0,0,0,0,0,0,0],"id":19,"left_children":[1,-1,3,5,7,-1,9,11,13,-1,-1,-1,-1,-1,-1],"loss_changes":[1.03261505E2,0E0,3.080677E0,3.864668E0,4.6233006E0,0E0,4.2001934E0,6.678263E0,7.6707325E0,0E0,0E0,0E0,0E0,0E0,0E0],"parents":[2147483647,0,0,2,2,3,3,4,4,6,6,7,7,8,8],"right_children":[2,-1,4,6,8,-1,10,12,14,-1,-1,-1,-1,-1,-1],"split_conditions":[1.5E-1,-4.9754318E-2,7.9E-3,2.5E1,3.2E-1,-2.0759946E-2,3.9E-1,3.143786E4,1.43E-2,5.2969247E-2,-2.794665E-2,3.3375956E-3,5.9887685E-2,-4.068121E-2,4.673773E-2],"split_indices":[8,0,6,11,0,0,8,7,6,0,0,0,0,0,0],"split_type":[0,0,0,0,0,0,0,0,0,0,0,0,0,0,0],"sum_hessian":[1.6041621E2,6.291881E1,9.74974E1,3.117298E1,6.632442E1,1.5810275E0,2.9591951E1,3.7002537E1,2.932188E1,2.8491302E1,1.1006489E0,3.172004E1,5.282497E0,1.9948269E0,2.7327055E1],"tree_param":{"num_deleted":"0","num_feature":"14","num_nodes":"15","size_leaf_vector":"1"}},{"base_weights":[-5.684274E-3,-4.968947E-2,5.95405E-1,6.515446E-1,7.3196866E-2,5.9582007E-1,1.8265073E0,-2.0465183E-1,6.828419E-2,3.2168683E-2,-2.7859941E-2,1.6314158E-2,1.15230076E-1,-4.059255E-2,6.0221986E-3],"categories":[],"categories_nodes":[],"categories_segments":[],"categories_sizes":[],"default_left":[0,0,1,1,0,0,0,0,0,0,0,0,0,0,0],"id":20,"left_children":[1,-1,3,5,7,9,11,13,-1,-1,-1,-1,-1,-1,-1],"loss_changes":[9.567755E1,0E0,2.8888245E0,4.825115E0,4.1757336E0,5.1677E0,1.8339529E0,2.0321932E0,0E0,0E0,0E0,0E0,0E0,0E0,0E0],"parents":[2147483647,0,0,2,2,3,3,4,4,5,5,6,6,7,7],"right_children":[2,-1,4,6,8,10,12,14,-1,-1,-1,-1,-1,-1,-1],"split_conditions":[1.5E-1,-4.968947E-2,1.248E-1,1.155E-1,1.999E-1,4.145E-1,1.06457E3,8.67E2,6.828419E-2,3.2168683E-2,-2.7859941E-2,1.6314158E-2,1.15230076E-1,-4.059255E-2,6.0221986E-3],"split_indices":[8,0,6,6,6,8,7,1,0,0,0,0,0,0,0],"split_type":[0,0,0,0,0,0,0,0,0,0,0,0,0,0,0],"sum_hessian":[1.5909352E2,5.992766E1,9.9165855E1,8.931631E1,9.849547E0,8.6711E1,2.6053112E0,8.79955E0,1.0499977E0,8.370095E1,3.0100453E0,1.0362142E0,1.5690968E0,2.5463417E0,6.2532086E0],"tree_param":{"num_deleted":"0","num_feature":"14","num_nodes":"15","size_leaf_vector":"1"}},{"base_weights":[-5.356954E-3,-4.9624097E-2,5.5820286E-1,7.3878807E-1,3.933867E-1,6.401567E-1,1.4161383E0,9.5859057E-1,2.0851582E-1,-1.4485637E-2,3.8117304E-2,9.662769E-2,1.2355252E-2,6.2925E-2,-3.566169E-2,3.6771835E-3,4.9825486E-2],"categories":[],"categories_nodes":[],"categories_segments":[],"categories_sizes":[],"default_left":[0,0,0,0,0,0,1,0,1,0,0,0,0,0,0,0,0],"id":21,"left_children":[1,-1,3,5,7,9,11,13,15,-1,-1,-1,-1,-1,-1,-1,-1],"loss_changes":[8.890639E1,0E0,2.7375202E0,2.2607536E0,5.5817213E0,5.130169E0,2.662322E0,7.5960684E0,4.497113E0,0E0,0E0,0E0,0E0,0E0,0E0,0E0,0E0],"parents":[2147483647,0,0,2,2,3,3,4,4,5,5,6,6,7,7,8,8],"right_children":[2,-1,4,6,8,10,12,14,16,-1,-1,-1,-1,-1,-1,-1,-1],"split_conditions":[1.5E-1,-4.9624097E-2,4.7E1,9.132601E3,1E0,1E0,9.2E-2,4.4E0,1.0602812E5,-1.4485637E-2,3.8117304E-2,9.662769E-2,1.2355252E-2,6.2925E-2,-3.566169E-2,3.6771835E-3,4.9825486E-2],"split_indices":[8,0,11,1,2,12,6,3,7,0,0,0,0,0,0,0,0],"split_type":[0,0,0,0,0,0,0,0,0,0,0,0,0,0,0,0,0],"sum_hessian":[1.5782033E2,5.7079475E1,1.0074085E2,4.640906E1,5.433179E1,4.220808E1,4.2009783E0,1.2359629E1,4.1972164E1,4.742943E0,3.7465137E1,2.4608061E0,1.740172E0,1.0689299E1,1.6703297E0,3.6767708E1,5.204455E0],"tree_param":{"num_deleted":"0","num_feature":"14","num_nodes":"17","size_leaf_vector":"1"}},{"base_weights":[-4.758057E-3,-4.9558055E-2,5.248706E-1,7.231932E-1,3.8548595E-1,-3.532089E-2,7.9182225E-1,1.4100142E-1,8.1143314E-1,5.4531455E-2,1.776953E-2,-3.488631E-2,1.8180644E-2,1.6444867E-2,7.164074E-2],"categories":[],"categories_nodes":[],"categories_segments":[],"categories_sizes":[],"default_left":[0,0,0,0,0,0,0,0,0,0,0,0,0,0,0],"id":22,"left_children":[1,-1,3,5,7,-1,9,11,13,-1,-1,-1,-1,-1,-1],"loss_changes":[8.2800125E1,0E0,2.5719967E0,4.623518E0,6.4154787E0,0E0,4.8284073E0,7.9178944E0,6.3218956E0,0E0,0E0,0E0,0E0,0E0,0E0],"parents":[2147483647,0,0,2,2,3,3,4,4,6,6,7,7,8,8],"right_children":[2,-1,4,6,8,-1,10,12,14,-1,-1,-1,-1,-1,-1],"split_conditions":[1.5E-1,-4.9558055E-2,2.15E-1,-1.9E-1,9.351769E3,-3.532089E-2,5.1E1,2.35E-1,2.8E-1,5.4531455E-2,1.776953E-2,-3.488631E-2,1.8180644E-2,1.6444867E-2,7.164074E-2],"split_indices":[8,0,8,5,1,0,11,8,0,0,0,0,0,0,0],"split_type":[0,0,0,0,0,0,0,0,0,0,0,0,0,0,0],"sum_hessian":[1.5649538E2,5.436753E1,1.02127846E2,4.0423313E1,6.1704533E1,1.425957E0,3.8997356E1,4.0048553E1,2.165598E1,2.2258741E1,1.6738615E1,7.9523616E0,3.209619E1,1.305071E1,8.6052685E0],"tree_param":{"num_deleted":"0","num_feature":"14","num_nodes":"15","size_leaf_vector":"1"}},{"base_weights":[-4.817561E-3,-4.9491193E-2,4.928914E-1,7.21285E-1,3.7625045E-1,-2.2685314E-2,7.946258E-1,1.7145666E-1,6.1726123E-1,4.2977124E-2,-2.7937999E-2,1.5250359E-4,4.9872365E-2,-4.1230537E-2,3.7051152E-2],"categories":[],"categories_nodes":[],"categories_segments":[],"categories_sizes":[],"default_left":[0,0,1,0,0,0,0,0,0,0,0,0,0,0,0],"id":23,"left_children":[1,-1,3,5,7,-1,9,11,13,-1,-1,-1,-1,-1,-1],"loss_changes":[7.709466E1,0E0,2.5118694E0,3.310154E0,3.4107885E0,0E0,3.342743E0,5.5475087E0,6.38303E0,0E0,0E0,0E0,0E0,0E0,0E0],"parents":[2147483647,0,0,2,2,3,3,4,4,6,6,7,7,8,8],"right_children":[2,-1,4,6,8,-1,10,12,14,-1,-1,-1,-1,-1,-1],"split_conditions":[1.5E-1,-4.9491193E-2,7.9E-3,2.5E1,3.2E-1,-2.2685314E-2,3.9E-1,3.143786E4,1.43E-2,4.2977124E-2,-2.7937999E-2,1.5250359E-4,4.9872365E-2,-4.1230537E-2,3.7051152E-2],"split_indices":[8,0,6,11,0,0,8,7,6,0,0,0,0,0,0],"split_type":[0,0,0,0,0,0,0,0,0,0,0,0,0,0,0],"sum_hessian":[1.5526176E2,5.178544E1,1.03476326E2,3.3228367E1,7.024796E1,1.6475035E0,3.1580864E1,3.8902664E1,3.1345297E1,3.048358E1,1.0972844E0,3.3148E1,5.754667E0,2.0301692E0,2.9315128E1],"tree_param":{"num_deleted":"0","num_feature":"14","num_nodes":"15","size_leaf_vector":"1"}},{"base_weights":[-5.2688383E-3,-4.9423363E-2,4.6290317E-1,1.0356824E0,4.1730228E-1,1.6431632E0,4.5828532E-2,4.356843E-1,-2.9300645E-2,1.0359897E-1,1.09628625E-2,3.3765957E-2,-3.6673695E-2,1.16603365E-2,2.6897455E-2],"categories":[],"categories_nodes":[],"categories_segments":[],"categories_sizes":[],"default_left":[0,0,0,0,0,1,0,0,0,0,0,0,0,0,0],"id":24,"left_children":[1,-1,3,5,7,9,11,13,-1,-1,-1,-1,-1,-1,-1],"loss_changes":[7.181842E1,0E0,2.3286629E0,4.206016E0,2.0919056E0,2.222209E0,2.328297E0,1.9113102E0,0E0,0E0,0E0,0E0,0E0,0E0,0E0],"parents":[2147483647,0,0,2,2,3,3,4,4,5,5,6,6,7,7],"right_children":[2,-1,4,6,8,10,12,14,-1,-1,-1,-1,-1,-1,-1],"split_conditions":[1.5E-1,-4.9423363E-2,1.6E-1,3.55E-1,4.415E-1,8.27443E3,2E0,5.44E-2,-2.9300645E-2,1.0359897E-1,1.09628625E-2,3.3765957E-2,-3.6673695E-2,1.16603365E-2,2.6897455E-2],"split_indices":[8,0,8,0,8,7,10,6,0,0,0,0,0,0,0],"split_type":[0,0,0,0,0,0,0,0,0,0,0,0,0,0,0],"sum_hessian":[1.5402917E2,4.9327072E1,1.047021E2,6.119901E0,9.858221E1,3.3834476E0,2.7364533E0,9.736413E1,1.2180789E0,2.250547E0,1.1329007E0,1.5875349E0,1.1489185E0,3.377408E1,6.3590046E1],"tree_param":{"num_deleted":"0","num_feature":"14","num_nodes":"15","size_leaf_vector":"1"}},{"base_weights":[-5.0826385E-3,-4.9354415E-2,4.3567756E-1,4.8406982E-1,-8.568006E-3,4.3359923E-1,1.5902116E0,-2.6246837E-1,5.9410393E-2,2.3662739E-2,-2.8164271E-2,1.3190365E-2,1.0115727E-1,-4.1257486E-2,1.8771166E-3],"categories":[],"categories_nodes":[],"categories_segments":[],"categories_sizes":[],"default_left":[0,0,1,1,0,0,0,0,0,0,0,0,0,0,0],"id":25,"left_children":[1,-1,3,5,7,9,11,13,-1,-1,-1,-1,-1,-1,-1],"loss_changes":[6.704744E1,0E0,2.302824E0,4.6944485E0,3.8020067E0,3.9669933E0,1.6675797E0,1.7688346E0,0E0,0E0,0E0,0E0,0E0,0E0,0E0],"parents":[2147483647,0,0,2,2,3,3,4,4,5,5,6,6,7,7],"right_children":[2,-1,4,6,8,10,12,14,-1,-1,-1,-1,-1,-1,-1],"split_conditions":[1.5E-1,-4.9354415E-2,1.248E-1,1.155E-1,1.999E-1,4.145E-1,1.06457E3,8.67E2,5.9410393E-2,2.3662739E-2,-2.8164271E-2,1.3190365E-2,1.0115727E-1,-4.1257486E-2,1.8771166E-3],"split_indices":[8,0,6,6,6,8,7,1,0,0,0,0,0,0,0],"split_type":[0,0,0,0,0,0,0,0,0,0,0,0,0,0,0],"sum_hessian":[1.5291156E2,4.6986652E1,1.0592491E2,9.5438965E1,1.0485945E1,9.260558E1,2.8333797E0,9.294723E0,1.1912221E0,8.956789E1,3.0376976E0,1.093256E0,1.7401239E0,2.623621E0,6.6711016E0],"tree_param":{"num_deleted":"0","num_feature":"14","num_nodes":"15","size_leaf_vector":"1"}},{"base_weights":[-4.839041E-3,-4.92842E-2,4.106967E-1,5.665258E-1,2.703537E-1,6.1549485E-1,-1.867937E-1,7.7427477E-1,1.0532377E-1,2.6418624E-2,7.220769E-2,-4.079431E-2,3.8266145E-2,5.200569E-2,-3.654366E-2,-6.0952874E-4,3.9566092E-2],"categories":[],"categories_nodes":[],"categories_segments":[],"categories_sizes":[],"default_left":[0,0,0,1,0,0,1,0,1,0,0,0,0,0,0,0,0],"id":26,"left_children":[1,-1,3,5,7,9,11,13,15,-1,-1,-1,-1,-1,-1,-1,-1],"loss_changes":[6.2674408E1,0E0,2.209221E0,1.9695415E0,4.804039E0,2.6617374E0,2.9218988E0,6.4962587E0,3.6705322E0,0E0,0E0,0E0,0E0,0E0,0E0,0E0,0E0],"parents":[2147483647,0,0,2,2,3,3,4,4,5,5,6,6,7,7,8,8],"right_children":[2,-1,4,6,8,10,12,14,16,-1,-1,-1,-1,-1,-1,-1,-1],"split_conditions":[1.5E-1,-4.92842E-2,4.7E1,5.703037E4,1E0,9.132601E3,-2.5E-2,4.4E0,1.0602812E5,2.6418624E-2,7.220769E-2,-4.079431E-2,3.8266145E-2,5.200569E-2,-3.654366E-2,-6.0952874E-4,3.9566092E-2],"split_indices":[8,0,11,7,2,1,5,3,7,0,0,0,0,0,0,0,0],"split_type":[0,0,0,0,0,0,0,0,0,0,0,0,0,0,0,0,0],"sum_hessian":[1.5178029E2,4.475856E1,1.07021736E2,4.9273933E1,5.7747803E1,4.6438206E1,2.8357267E0,1.3335612E1,4.441219E1,4.3502163E1,2.9360456E0,1.7936735E0,1.0420532E0,1.1596416E1,1.7391956E0,3.8755447E1,5.6567416E0],"tree_param":{"num_deleted":"0","num_feature":"14","num_nodes":"17","size_leaf_vector":"1"}},{"base_weights":[-4.4629606E-3,-4.9212575E-2,3.8786167E-1,9.42816E-1,3.4465724E-1,1.5092932E0,1.517981E-2,5.47236E-1,2.406345E-1,9.489717E-2,9.937771E-3,3.0840797E-2,-3.6543336E-2,-2.3767088E-2,3.0754728E-2,1.9408017E-2,-2.9055965E-3],"categories":[],"categories_nodes":[],"categories_segments":[],"categories_sizes":[],"default_left":[0,0,0,0,1,1,0,0,0,0,0,0,0,0,0,0,0],"id":27,"left_children":[1,-1,3,5,7,9,11,13,15,-1,-1,-1,-1,-1,-1,-1,-1],"loss_changes":[5.8667145E1,0E0,2.2882805E0,3.8110995E0,2.0323915E0,1.9248552E0,2.1458478E0,2.6556349E0,3.0916977E0,0E0,0E0,0E0,0E0,0E0,0E0,0E0,0E0],"parents":[2147483647,0,0,2,2,3,3,4,4,5,5,6,6,7,7,8,8],"right_children":[2,-1,4,6,8,10,12,14,16,-1,-1,-1,-1,-1,-1,-1,-1],"split_conditions":[1.5E-1,-4.9212575E-2,1.6E-1,3.55E-1,7.9E-3,8.27443E3,2E0,2.5E1,1E0,9.489717E-2,9.937771E-3,3.0840797E-2,-3.6543336E-2,-2.3767088E-2,3.0754728E-2,1.9408017E-2,-2.9055965E-3],"split_indices":[8,0,8,0,6,7,10,11,9,0,0,0,0,0,0,0,0],"split_type":[0,0,0,0,0,0,0,0,0,0,0,0,0,0,0,0,0],"sum_hessian":[1.5062885E2,4.2637505E1,1.0799135E2,6.29614E0,1.01695206E2,3.5197265E0,2.7764137E0,3.3057243E1,6.863796E1,2.3689718E0,1.1507546E0,1.6328506E0,1.1435632E0,1.6834847E0,3.1373756E1,4.5747707E1,2.2890257E1],"tree_param":{"num_deleted":"0","num_feature":"14","num_nodes":"17","size_leaf_vector":"1"}},{"base_weights":[-4.2196102E-3,-4.9139384E-2,3.6634153E-1,8.9957213E-1,3.2484892E-1,1.4326789E0,1.2738195E-2,1.1780422E-1,4.1514656E-1,8.9671716E-2,9.647325E-3,2.9661585E-2,-3.590533E-2,-2.881445E-2,2.3491217E-2,2.4119345E-2,-2.1959161E-2],"categories":[],"categories_nodes":[],"categories_segments":[],"categories_sizes":[],"default_left":[0,0,0,0,0,1,0,0,1,0,0,0,0,0,0,0,0],"id":28,"left_children":[1,-1,3,5,7,9,11,13,15,-1,-1,-1,-1,-1,-1,-1,-1],"loss_changes":[5.494678E1,0E0,2.1396847E0,3.4662437E0,1.8869514E0,1.7086649E0,2.0280104E0,8.295016E0,4.330962E0,0E0,0E0,0E0,0E0,0E0,0E0,0E0,0E0],"parents":[2147483647,0,0,2,2,3,3,4,4,5,5,6,6,7,7,8,8],"right_children":[2,-1,4,6,8,10,12,14,16,-1,-1,-1,-1,-1,-1,-1,-1],"split_conditions":[1.5E-1,-4.9139384E-2,1.6E-1,3.55E-1,1E0,8.27443E3,2E0,9.351769E3,1.3E-1,8.9671716E-2,9.647325E-3,2.9661585E-2,-3.590533E-2,-2.881445E-2,2.3491217E-2,2.4119345E-2,-2.1959161E-2],"split_indices":[8,0,8,0,12,7,10,1,5,0,0,0,0,0,0,0,0],"split_type":[0,0,0,0,0,0,0,0,0,0,0,0,0,0,0,0,0],"sum_hessian":[1.4953458E2,4.061841E1,1.08916176E2,6.370265E0,1.0254591E2,3.5941792E0,2.7760856E0,3.1841263E1,7.070465E1,2.438081E0,1.1560982E0,1.6521297E0,1.1239558E0,1.0500293E1,2.1340971E1,6.594943E1,4.7552147E0],"tree_param":{"num_deleted":"0","num_feature":"14","num_nodes":"17","size_leaf_vector":"1"}},{"base_weights":[-4.2151934E-3,-4.906449E-2,3.4578556E-1,3.126674E-1,1.0158285E0,3.701705E-1,-4.4715828E-1,8.6257346E-2,-3.8561772E-3,1.6150704E-2,5.652144E-2,-3.443121E-2,2.1909146E-2],"categories":[],"categories_nodes":[],"categories_segments":[],"categories_sizes":[],"default_left":[0,0,1,1,0,1,0,0,0,0,0,0,0],"id":29,"left_children":[1,-1,3,5,7,9,11,-1,-1,-1,-1,-1,-1],"loss_changes":[5.1473885E1,0E0,2.1417637E0,4.842993E0,3.8351178E0,3.2224684E0,2.0087152E0,0E0,0E0,0E0,0E0,0E0,0E0],"parents":[2147483647,0,0,2,2,3,3,4,4,5,5,6,6],"right_children":[2,-1,4,6,8,10,12,-1,-1,-1,-1,-1,-1],"split_conditions":[1.5E-1,-4.906449E-2,2.6E-1,1.3E-1,2.85E-1,8E-2,9.324061E4,8.6257346E-2,-3.8561772E-3,1.6150704E-2,5.652144E-2,-3.443121E-2,2.1909146E-2],"split_indices":[8,0,5,5,8,5,7,0,0,0,0,0,0],"split_type":[0,0,0,0,0,0,0,0,0,0,0,0,0],"sum_hessian":[1.485264E2,3.869642E1,1.0982999E2,1.0605467E2,3.7753146E0,9.906995E1,6.9847236E0,1.9386895E0,1.8366251E0,9.46255E1,4.4444485E0,5.6625314E0,1.3221922E0],"tree_param":{"num_deleted":"0","num_feature":"14","num_nodes":"13","size_leaf_vector":"1"}},{"base_weights":[-3.8025E-3,-4.8987735E-2,3.2699054E-1,8.424524E-1,2.8733438E-1,1.3452985E0,-5.4107385E-4,3.326937E-1,-7.314979E-2,8.4205434E-2,8.894699E-3,2.7800921E-2,-3.538764E-2,1.4561789E-2,7.5253256E-2,4.5094725E-2,-2.2462746E-2],"categories":[],"categories_nodes":[],"categories_segments":[],"categories_sizes":[],"default_left":[0,0,0,0,1,1,0,1,0,0,0,0,0,0,0,0,0],"id":30,"left_children":[1,-1,3,5,7,9,11,13,15,-1,-1,-1,-1,-1,-1,-1,-1],"loss_changes":[4.8293728E1,0E0,2.041872E0,3.164781E0,1.7456007E0,1.5498047E0,1.8846794E0,4.1150274E0,5.0203595E0,0E0,0E0,0E0,0E0,0E0,0E0,0E0,0E0],"parents":[2147483647,0,0,2,2,3,3,4,4,5,5,6,6,7,7,8,8],"right_children":[2,-1,4,6,8,10,12,14,16,-1,-1,-1,-1,-1,-1,-1,-1],"split_conditions":[1.5E-1,-4.8987735E-2,1.6E-1,3.55E-1,6.8E1,8.27443E3,2E0,6.6E1,1E0,8.4205434E-2,8.894699E-3,2.7800921E-2,-3.538764E-2,1.4561789E-2,7.5253256E-2,4.5094725E-2,-2.2462746E-2],"split_indices":[8,0,8,0,11,7,10,11,2,0,0,0,0,0,0,0,0],"split_type":[0,0,0,0,0,0,0,0,0,0,0,0,0,0,0,0,0],"sum_hessian":[1.4759877E2,3.6866932E1,1.1073184E2,6.464218E0,1.04267624E2,3.6757638E0,2.7884545E0,9.268257E1,1.1585052E1,2.5058842E0,1.1698797E0,1.6800675E0,1.108387E0,9.072281E1,1.9597663E0,2.8356657E0,8.749386E0],"tree_param":{"num_deleted":"0","num_feature":"14","num_nodes":"17","size_leaf_vector":"1"}},{"base_weights":[-3.0129408E-3,-4.8908975E-2,3.102182E-1,2.785108E-1,9.570815E-1,3.317839E-1,-4.4002247E-1,8.1295796E-2,-4.1500162E-3,2.8463562E-3,2.2124367E-2,-3.3801135E-2,2.0649144E-2],"categories":[],"categories_nodes":[],"categories_segments":[],"categories_sizes":[],"default_left":[0,0,1,1,0,0,0,0,0,0,0,0,0],"id":31,"left_children":[1,-1,3,5,7,9,11,-1,-1,-1,-1,-1,-1],"loss_changes":[4.538915E1,0E0,2.040391E0,4.304268E0,3.5055213E0,3.0694199E0,1.8751858E0,0E0,0E0,0E0,0E0,0E0,0E0],"parents":[2147483647,0,0,2,2,3,3,4,4,5,5,6,6],"right_children":[2,-1,4,6,8,10,12,-1,-1,-1,-1,-1,-1],"split_conditions":[1.5E-1,-4.8908975E-2,2.6E-1,1.3E-1,2.85E-1,1E0,9.324061E4,8.1295796E-2,-4.1500162E-3,2.8463562E-3,2.2124367E-2,-3.3801135E-2,2.0649144E-2],"split_indices":[8,0,5,5,8,12,7,0,0,0,0,0,0],"split_type":[0,0,0,0,0,0,0,0,0,0,0,0,0],"sum_hessian":[1.4660298E2,3.5125546E1,1.1147743E2,1.0763217E2,3.8452606E0,1.0070408E2,6.928094E0,1.997495E0,1.8477656E0,2.9349289E1,7.135479E1,5.589213E0,1.338881E0],"tree_param":{"num_deleted":"0","num_feature":"14","num_nodes":"13","size_leaf_vector":"1"}},{"base_weights":[-2.9681555E-3,-4.8828047E-2,2.9338467E-1,4.3791774E-1,1.7004173E-1,3.6715704E-1,7.9932585E-2,3.2438137E-2,5.655201E-1,2.3189342E-2,-3.3604782E-2,3.97942E-2,-6.0643903E-3,7.060387E-2,1.28242E-2],"categories":[],"categories_nodes":[],"categories_segments":[],"categories_sizes":[],"default_left":[0,0,0,1,0,1,0,0,0,0,0,0,0,0,0],"id":32,"left_children":[1,-1,3,5,7,9,-1,11,13,-1,-1,-1,-1,-1,-1],"loss_changes":[4.261752E1,0E0,1.9443903E0,3.6437178E0,3.3957553E0,5.3175488E0,0E0,5.6833625E0,3.8585792E0,0E0,0E0,0E0,0E0,0E0,0E0],"parents":[2147483647,0,0,2,2,3,3,4,4,5,5,7,7,8,8],"right_children":[2,-1,4,6,8,10,-1,12,14,-1,-1,-1,-1,-1,-1],"split_conditions":[1.5E-1,-4.8828047E-2,2.25E-1,2.1E-1,9.980859E3,1.4E-1,7.9932585E-2,-1.25E-1,8.341981E4,2.3189342E-2,-3.3604782E-2,3.97942E-2,-6.0643903E-3,7.060387E-2,1.28242E-2],"split_indices":[8,0,8,5,1,5,0,5,1,0,0,0,0,0,0],"split_type":[0,0,0,0,0,0,0,0,0,0,0,0,0,0,0],"sum_hessian":[1.4571423E2,3.346806E1,1.1224617E2,5.050918E1,6.1736996E1,4.884764E1,1.6615378E0,4.6603645E1,1.5133348E1,4.5198784E1,3.6488566E0,7.111025E0,3.9492622E1,3.0925326E0,1.2040815E1],"tree_param":{"num_deleted":"0","num_feature":"14","num_nodes":"15","size_leaf_vector":"1"}},{"base_weights":[-2.264478E-3,-4.874481E-2,2.786784E-1,1.9521719E-1,4.9227026E-1,2.3919035E-1,-4.381418E-2,-3.802365E-2,6.4146364E-1,6.434075E-2,9.876717E-3,3.7752714E-2,-1.55795235E-2],"categories":[],"categories_nodes":[],"categories_segments":[],"categories_sizes":[],"default_left":[0,0,0,1,0,0,0,0,0,0,0,0,0],"id":33,"left_children":[1,-1,3,5,7,9,-1,-1,11,-1,-1,-1,-1],"loss_changes":[4.0102882E1,0E0,1.9339209E0,4.1456795E0,6.3448834E0,3.2819653E0,0E0,0E0,3.3255253E0,0E0,0E0,0E0,0E0],"parents":[2147483647,0,0,2,2,3,3,4,4,5,5,8,8],"right_children":[2,-1,4,6,8,10,-1,-1,12,-1,-1,-1,-1],"split_conditions":[1.5E-1,-4.874481E-2,3.45E-1,1.2E-1,8.2475366E2,1.7245E2,-4.381418E-2,-3.802365E-2,8.35E-1,6.434075E-2,9.876717E-3,3.7752714E-2,-1.55795235E-2],"split_indices":[8,0,0,5,1,7,0,0,0,0,0,0,0],"split_type":[0,0,0,0,0,0,0,0,0,0,0,0,0],"sum_hessian":[1.4476624E2,3.1890478E1,1.1287576E2,8.2537964E1,3.0337803E1,8.003038E1,2.5075846E0,2.7925086E0,2.7545294E1,1.9174018E0,7.8112976E1,2.479753E1,2.7477643E0],"tree_param":{"num_deleted":"0","num_feature":"14","num_nodes":"13","size_leaf_vector":"1"}},{"base_weights":[-2.751737E-3,-4.86591E-2,2.631449E-1,4.4576585E-1,1.721381E-1,-2.5692238E-2,5.070921E-1,5.537756E-1,8.2054906E-2,4.6392348E-2,1.6047817E-2,6.1339285E-2,-6.9512683E-3,-1.3104506E-2,1.5724046E-2],"categories":[],"categories_nodes":[],"categories_segments":[],"categories_sizes":[],"default_left":[0,0,1,0,0,0,0,0,1,0,0,0,0,0,0],"id":34,"left_children":[1,-1,3,5,7,-1,9,11,13,-1,-1,-1,-1,-1,-1],"loss_changes":[3.766025E1,0E0,1.8273783E0,2.4659972E0,2.6393404E0,0E0,2.5003357E0,7.0429387E0,5.229987E0,0E0,0E0,0E0,0E0,0E0,0E0],"parents":[2147483647,0,0,2,2,3,3,4,4,6,6,7,7,8,8],"right_children":[2,-1,4,6,8,-1,10,12,14,-1,-1,-1,-1,-1,-1],"split_conditions":[1.5E-1,-4.86591E-2,7.9E-3,2.5E1,-1.35E-1,-2.5692238E-2,2.03E-1,8.67E-2,-1E-2,4.6392348E-2,1.6047817E-2,6.1339285E-2,-6.9512683E-3,-1.3104506E-2,1.5724046E-2],"split_indices":[8,0,6,11,5,0,8,6,5,0,0,0,0,0,0],"split_type":[0,0,0,0,0,0,0,0,0,0,0,0,0,0,0],"sum_hessian":[1.439582E2,3.0388983E1,1.13569214E2,3.647588E1,7.709334E1,1.747817E0,3.472806E1,1.3739319E1,6.3354015E1,9.429088E0,2.5298975E1,6.578237E0,7.1610823E0,2.5487679E1,3.786634E1],"tree_param":{"num_deleted":"0","num_feature":"14","num_nodes":"15","size_leaf_vector":"1"}},{"base_weights":[-2.661296E-3,-4.8570774E-2,2.4943326E-1,2.2078715E-1,8.4029657E-1,2.677798E-1,-4.331416E-1,7.2339684E-2,-5.1031485E-3,1.12347705E-2,4.8476826E-2,-3.315395E-2,1.909099E-2],"categories":[],"categories_nodes":[],"categories_segments":[],"categories_sizes":[],"default_left":[0,0,1,1,0,1,0,0,0,0,0,0,0],"id":35,"left_children":[1,-1,3,5,7,9,11,-1,-1,-1,-1,-1,-1],"loss_changes":[3.543433E1,0E0,1.7633448E0,3.532329E0,2.9869149E0,2.936781E0,1.7214837E0,0E0,0E0,0E0,0E0,0E0,0E0],"parents":[2147483647,0,0,2,2,3,3,4,4,5,5,6,6],"right_children":[2,-1,4,6,8,10,12,-1,-1,-1,-1,-1,-1],"split_conditions":[1.5E-1,-4.8570774E-2,2.6E-1,1.3E-1,2.85E-1,8E-2,9.324061E4,7.2339684E-2,-5.1031485E-3,1.12347705E-2,4.8476826E-2,-3.315395E-2,1.909099E-2],"split_indices":[8,0,5,5,8,5,7,0,0,0,0,0,0],"split_type":[0,0,0,0,0,0,0,0,0,0,0,0,0],"sum_hessian":[1.4310107E2,2.8959919E1,1.1414116E2,1.1017342E2,3.9677339E0,1.0333786E2,6.8355627E0,2.0883777E0,1.8793561E0,9.860423E1,4.733626E0,5.476704E0,1.3588585E0],"tree_param":{"num_deleted":"0","num_feature":"14","num_nodes":"13","size_leaf_vector":"1"}},{"base_weights":[-2.3848077E-3,-4.8479673E-2,2.3663649E-1,7.022751E-1,2.0161325E-1,1.0053973E0,-1.9979091E-2,1.8268639E-1,5.3494822E-2,7.111581E-2,8.957992E-3,1.3964543E-2,-3.4744607E-4],"categories":[],"categories_nodes":[],"categories_segments":[],"categories_sizes":[],"default_left":[0,0,0,0,1,0,0,1,0,0,0,0,0],"id":36,"left_children":[1,-1,3,5,7,9,-1,11,-1,-1,-1,-1,-1],"loss_changes":[3.3367317E1,0E0,1.745925E0,2.9714434E0,1.596602E0,1.921658E0,0E0,1.9791064E0,0E0,0E0,0E0,0E0,0E0],"parents":[2147483647,0,0,2,2,3,3,4,4,5,5,7,7],"right_children":[2,-1,4,6,8,10,-1,12,-1,-1,-1,-1,-1],"split_conditions":[1.5E-1,-4.8479673E-2,1.6E-1,7.8E1,1.4655318E6,3.55E-1,-1.9979091E-2,4.7E1,5.3494822E-2,7.111581E-2,8.957992E-3,1.3964543E-2,-3.4744607E-4],"split_indices":[8,0,8,11,7,0,0,11,0,0,0,0,0],"split_type":[0,0,0,0,0,0,0,0,0,0,0,0,0],"sum_hessian":[1.4234016E2,2.7599842E1,1.1474032E2,6.6937904E0,1.08046524E2,5.3182707E0,1.3755201E0,1.0692614E2,1.1203806E0,3.0551877E0,2.2630827E0,7.0525894E1,3.6400253E1],"tree_param":{"num_deleted":"0","num_feature":"14","num_nodes":"13","size_leaf_vector":"1"}},{"base_weights":[-1.9837073E-3,-4.8385635E-2,2.249049E-1,1.9734359E-1,7.9805934E-1,2.4124081E-1,-4.237608E-1,7.266632E-2,-4.337841E-2,-6.451782E-4,1.7239003E-2,-3.2467064E-2,1.8215371E-2,2.5863478E-2,-3.068173E-2],"categories":[],"categories_nodes":[],"categories_segments":[],"categories_sizes":[],"default_left":[0,0,1,1,0,0,0,0,0,0,0,0,0,0,0],"id":37,"left_children":[1,-1,3,5,7,9,11,-1,13,-1,-1,-1,-1,-1,-1],"loss_changes":[3.1449356E1,0E0,1.6786065E0,3.1620798E0,2.8222375E0,2.7794194E0,1.6180277E0,0E0,1.3283231E0,0E0,0E0,0E0,0E0,0E0,0E0],"parents":[2147483647,0,0,2,2,3,3,4,4,5,5,6,6,8,8],"right_children":[2,-1,4,6,8,10,12,-1,14,-1,-1,-1,-1,-1,-1],"split_conditions":[1.5E-1,-4.8385635E-2,2.6E-1,1.3E-1,3.25E-1,1E0,9.324061E4,7.266632E-2,2.1E0,-6.451782E-4,1.7239003E-2,-3.2467064E-2,1.8215371E-2,2.5863478E-2,-3.068173E-2],"split_indices":[8,0,5,5,5,12,7,0,3,0,0,0,0,0,0],"split_type":[0,0,0,0,0,0,0,0,0,0,0,0,0,0,0],"sum_hessian":[1.4153708E2,2.6305437E1,1.1523164E2,1.11227356E2,4.0042844E0,1.0445638E2,6.770973E0,1.8423591E0,2.1619256E0,3.0490555E1,7.3965836E1,5.400999E0,1.3699743E0,1.137E0,1.0249255E0],"tree_param":{"num_deleted":"0","num_feature":"14","num_nodes":"15","size_leaf_vector":"1"}},{"base_weights":[-2.0122675E-3,-4.828851E-2,2.1324874E-1,1.3732646E-1,4.0969145E-1,1.7595403E-1,-4.266263E-2,-3.8015813E-2,5.469482E-1,5.761651E-2,6.8446295E-3,3.2454666E-2,-1.5882375E-2],"categories":[],"categories_nodes":[],"categories_segments":[],"categories_sizes":[],"default_left":[0,0,0,1,0,0,0,0,0,0,0,0,0],"id":38,"left_children":[1,-1,3,5,7,9,-1,-1,11,-1,-1,-1,-1],"loss_changes":[2.9627506E1,0E0,1.6849141E0,3.4295635E0,5.560983E0,3.019911E0,0E0,0E0,2.7899342E0,0E0,0E0,0E0,0E0],"parents":[2147483647,0,0,2,2,3,3,4,4,5,5,8,8],"right_children":[2,-1,4,6,8,10,-1,-1,12,-1,-1,-1,-1],"split_conditions":[1.5E-1,-4.828851E-2,3.45E-1,1.2E-1,8.2475366E2,1.7245E2,-4.266263E-2,-3.8015813E-2,8.35E-1,5.761651E-2,6.8446295E-3,3.2454666E-2,-1.5882375E-2],"split_indices":[8,0,0,5,1,7,0,0,0,0,0,0,0],"split_type":[0,0,0,0,0,0,0,0,0,0,0,0,0],"sum_hessian":[1.4081831E2,2.5073544E1,1.1574477E2,8.470613E1,3.1038635E1,8.23185E1,2.387632E0,2.7822995E0,2.8256336E1,2.070251E0,8.0248245E1,2.5493708E1,2.7626278E0],"tree_param":{"num_deleted":"0","num_feature":"14","num_nodes":"13","size_leaf_vector":"1"}},{"base_weights":[-2.5369846E-3,-4.818814E-2,2.0165302E-1,3.5310417E-2,2.8730348E-1,4.7111472E-1,-2.3412897E-1,-1.6994874E-1,4.0445146E-1,2.008409E-3,4.5499545E-2,6.2690094E-2,-1.7426183E-2,-1.4752001E-2,4.2936858E-2,1.5823677E-2,5.4840792E-2],"categories":[],"categories_nodes":[],"categories_segments":[],"categories_sizes":[],"default_left":[0,0,0,0,0,0,0,0,1,0,0,0,0,0,0,0,0],"id":39,"left_children":[1,-1,3,5,7,9,11,13,15,-1,-1,-1,-1,-1,-1,-1,-1],"loss_changes":[2.7895496E1,0E0,1.6601377E0,4.9231496E0,4.2065907E0,2.9879076E0,4.861808E0,2.3712528E0,3.4166193E0,0E0,0E0,0E0,0E0,0E0,0E0,0E0,0E0],"parents":[2147483647,0,0,2,2,3,3,4,4,5,5,6,6,7,7,8,8],"right_children":[2,-1,4,6,8,10,12,14,16,-1,-1,-1,-1,-1,-1,-1,-1],"split_conditions":[1.5E-1,-4.818814E-2,5.44E-2,7.976321E3,1.03852E3,2.03E-2,-1.7E-1,5.5E0,6.7E1,2.008409E-3,4.5499545E-2,6.2690094E-2,-1.7426183E-2,-1.4752001E-2,4.2936858E-2,1.5823677E-2,5.4840792E-2],"split_indices":[8,0,6,1,7,6,5,3,11,0,0,0,0,0,0,0,0],"split_type":[0,0,0,0,0,0,0,0,0,0,0,0,0,0,0,0,0],"sum_hessian":[1.4013602E2,2.390117E1,1.1623485E2,3.9987324E1,7.624753E1,1.4991251E1,2.4996073E1,1.5458637E1,6.078889E1,8.1146965E0,6.8765545E0,1.073447E0,2.3922626E1,1.4418492E1,1.0401442E0,5.52282E1,5.5606914E0],"tree_param":{"num_deleted":"0","num_feature":"14","num_nodes":"17","size_leaf_vector":"1"}},{"base_weights":[-1.698518E-3,-4.808436E-2,1.9259173E-1,2.1616521E-1,-3.593342E-1,2.5385933E-2,3.0393317E-1,-3.974442E-2,2.2241922E-1,-2.8679445E-2,1.6076263E-2,5.0108492E-2,1.2322901E-2,2.0774191E-2,-4.1055903E-3],"categories":[],"categories_nodes":[],"categories_segments":[],"categories_sizes":[],"default_left":[0,0,1,0,1,0,0,0,0,0,0,0,0,0,0],"id":40,"left_children":[1,-1,3,5,7,9,11,-1,13,-1,-1,-1,-1,-1,-1],"loss_changes":[2.6356857E1,0E0,1.6068726E0,1.8901296E0,1.4918587E0,6.712807E0,2.8647156E0,0E0,2.1069951E-1,0E0,0E0,0E0,0E0,0E0,0E0],"parents":[2147483647,0,0,2,2,3,3,4,4,5,5,6,6,8,8],"right_children":[2,-1,4,6,8,10,12,-1,14,-1,-1,-1,-1,-1,-1],"split_conditions":[1.5E-1,-4.808436E-2,8.2E1,1E0,5.44E-2,9.351769E3,6.4E-3,-3.974442E-2,-1.75E-1,-2.8679445E-2,1.6076263E-2,5.0108492E-2,1.2322901E-2,2.0774191E-2,-4.1055903E-3],"split_indices":[8,0,11,12,6,1,6,0,5,0,0,0,0,0,0],"split_type":[0,0,0,0,0,0,0,0,0,0,0,0,0,0,0],"sum_hessian":[1.3931816E2,2.278545E1,1.16532715E2,1.1234275E2,4.1899643E0,3.580451E1,7.6538246E1,2.1865468E0,2.0034173E0,1.1535593E1,2.4268913E1,4.5709925E0,7.196725E1,1.0031236E0,1.0002936E0],"tree_param":{"num_deleted":"0","num_feature":"14","num_nodes":"15","size_leaf_vector":"1"}},{"base_weights":[-2.0360602E-3,-4.797702E-2,1.8245803E-1,2.2068204E-1,-1.5252924E-1,1.7932735E-1,1.1859671E0,-3.7193048E-1,4.6341043E-2,1.0622904E-2,-3.0725703E-2,4.99632E-3,7.9168305E-2,-4.2345602E-2,-5.6260685E-3],"categories":[],"categories_nodes":[],"categories_segments":[],"categories_sizes":[],"default_left":[0,0,1,1,0,0,0,0,0,0,0,0,0,0,0],"id":41,"left_children":[1,-1,3,5,7,9,11,13,-1,-1,-1,-1,-1,-1,-1],"loss_changes":[2.4847975E1,0E0,1.5438871E0,4.029653E0,3.345361E0,2.8417628E0,1.6491838E0,1.2901471E0,0E0,0E0,0E0,0E0,0E0,0E0,0E0],"parents":[2147483647,0,0,2,2,3,3,4,4,5,5,6,6,7,7],"right_children":[2,-1,4,6,8,10,12,14,-1,-1,-1,-1,-1,-1,-1],"split_conditions":[1.5E-1,-4.797702E-2,1.248E-1,1.155E-1,1.999E-1,4.145E-1,1.06457E3,8.67E2,4.6341043E-2,1.0622904E-2,-3.0725703E-2,4.99632E-3,7.9168305E-2,-4.2345602E-2,-5.6260685E-3],"split_indices":[8,0,6,6,6,8,7,1,0,0,0,0,0,0,0],"split_type":[0,0,0,0,0,0,0,0,0,0,0,0,0,0,0],"sum_hessian":[1.3866803E2,2.1723661E1,1.16944374E2,1.0527329E2,1.1671082E1,1.02085526E2,3.1877658E0,1.0244149E1,1.4269322E0,9.869874E1,3.3867927E0,1.1892227E0,1.9985431E0,2.818558E0,7.425591E0],"tree_param":{"num_deleted":"0","num_feature":"14","num_nodes":"15","size_leaf_vector":"1"}},{"base_weights":[-2.075622E-3,-4.786595E-2,1.7329551E-1,1.4766626E-1,7.1570146E-1,1.8791144E-1,-4.3185443E-1,6.365119E-2,-6.5136175E-3,7.3678643E-3,4.2849097E-2,1.4141381E-2,-3.2878544E-2],"categories":[],"categories_nodes":[],"categories_segments":[],"categories_sizes":[],"default_left":[0,0,1,1,0,1,0,0,0,0,0,0,0],"id":42,"left_children":[1,-1,3,5,7,9,11,-1,-1,-1,-1,-1,-1],"loss_changes":[2.3450882E1,0E0,1.5386252E0,2.744776E0,2.559487E0,2.7902281E0,1.4312242E0,0E0,0E0,0E0,0E0,0E0,0E0],"parents":[2147483647,0,0,2,2,3,3,4,4,5,5,6,6],"right_children":[2,-1,4,6,8,10,12,-1,-1,-1,-1,-1,-1],"split_conditions":[1.5E-1,-4.786595E-2,2.6E-1,1.3E-1,2.85E-1,8E-2,1.7E-1,6.365119E-2,-6.5136175E-3,7.3678643E-3,4.2849097E-2,1.4141381E-2,-3.2878544E-2],"split_indices":[8,0,5,5,8,5,8,0,0,0,0,0,0],"split_type":[0,0,0,0,0,0,0,0,0,0,0,0,0],"sum_hessian":[1.3799648E2,2.0713205E1,1.17283264E2,1.1320639E2,4.0768795E0,1.06487076E2,6.719315E0,2.1534183E0,1.9234612E0,1.0155198E2,4.9350953E0,1.5520533E0,5.1672616E0],"tree_param":{"num_deleted":"0","num_feature":"14","num_nodes":"13","size_leaf_vector":"1"}},{"base_weights":[-1.8910763E-3,-4.7751002E-2,1.6481109E-1,2.8729272E-1,5.8500428E-2,2.1725917E-1,8.1407714E-1,-1.4690372E-2,9.35602E-1,1.7808793E-2,-1.5962347E-2,6.386964E-2,-3.3956592E-3,-7.5416095E-3,2.1057991E-2,6.9575086E-2,-1.278579E-2],"categories":[],"categories_nodes":[],"categories_segments":[],"categories_sizes":[],"default_left":[0,0,0,0,0,0,1,1,0,0,0,0,0,0,0,0,0],"id":43,"left_children":[1,-1,3,5,7,9,11,13,15,-1,-1,-1,-1,-1,-1,-1,-1],"loss_changes":[2.2149406E1,0E0,1.5282757E0,1.8478289E0,4.1722836E0,3.8256457E0,2.5696292E0,3.6697185E0,3.0739837E0,0E0,0E0,0E0,0E0,0E0,0E0,0E0,0E0],"parents":[2147483647,0,0,2,2,3,3,4,4,5,5,6,6,7,7,8,8],"right_children":[2,-1,4,6,8,10,12,14,16,-1,-1,-1,-1,-1,-1,-1,-1],"split_conditions":[1.5E-1,-4.7751002E-2,4.7E1,9.132601E3,3E0,7.856407E3,9.2E-2,3.143786E4,3.2E0,1.7808793E-2,-1.5962347E-2,6.386964E-2,-3.3956592E-3,-7.5416095E-3,2.1057991E-2,6.9575086E-2,-1.278579E-2],"split_indices":[8,0,11,1,10,1,6,7,3,0,0,0,0,0,0,0,0],"split_type":[0,0,0,0,0,0,0,0,0,0,0,0,0,0,0,0,0],"sum_hessian":[1.3741145E2,1.9751612E1,1.1765984E2,5.3880806E1,6.3779037E1,4.880485E1,5.0759544E0,5.9774345E1,4.004691E0,3.903397E1,9.770883E0,3.0339122E0,2.042042E0,4.6045532E1,1.3728811E1,2.774786E0,1.2299052E0],"tree_param":{"num_deleted":"0","num_feature":"14","num_nodes":"17","size_leaf_vector":"1"}},{"base_weights":[-1.4198779E-3,-4.763201E-2,1.5728605E-1,5.837716E-1,1.2604006E-1,1.0383618E0,-1.326381E-1,1.0850313E-1,4.8287556E-2,6.8665E-2,2.3340727E-3,-3.0149003E-2,2.8835505E-2,9.7338045E-3,-2.9799307E-3],"categories":[],"categories_nodes":[],"categories_segments":[],"categories_sizes":[],"default_left":[0,0,0,0,1,1,1,1,0,0,0,0,0,0,0],"id":44,"left_children":[1,-1,3,5,7,9,11,13,-1,-1,-1,-1,-1,-1,-1],"loss_changes":[2.094331E1,0E0,1.5108943E0,2.6913788E0,1.5454022E0,1.5669022E0,1.6591762E0,1.6179954E0,0E0,0E0,0E0,0E0,0E0,0E0,0E0],"parents":[2147483647,0,0,2,2,3,3,4,4,5,5,6,6,7,7],"right_children":[2,-1,4,6,8,10,12,14,-1,-1,-1,-1,-1,-1,-1],"split_conditions":[1.5E-1,-4.763201E-2,1.6E-1,3.55E-1,1.4655318E6,8.27443E3,1.35E-1,4.7E1,4.8287556E-2,6.8665E-2,2.3340727E-3,-3.0149003E-2,2.8835505E-2,9.7338045E-3,-2.9799307E-3],"split_indices":[8,0,8,0,7,7,5,11,0,0,0,0,0,0,0],"split_type":[0,0,0,0,0,0,0,0,0,0,0,0,0,0,0],"sum_hessian":[1.3673767E2,1.8836517E1,1.1790115E2,6.84116E0,1.1106E2,3.9104366E0,2.9307232E0,1.0989413E2,1.1658655E0,2.6354852E0,1.2749515E0,1.8524112E0,1.0783119E0,7.2546814E1,3.7347313E1],"tree_param":{"num_deleted":"0","num_feature":"14","num_nodes":"15","size_leaf_vector":"1"}},{"base_weights":[-9.6463214E-4,-4.7508817E-2,1.5013914E-1,3.1079102E-1,7.2457634E-2,6.037518E-1,-2.1304276E-2,-6.251986E-2,3.2948804E-1,-8.70686E-3,4.085638E-2,-2.132791E-2,2.5775898E-2,3.0322013E-2,-8.911615E-3,1.5632961E-3,3.4762077E-2],"categories":[],"categories_nodes":[],"categories_segments":[],"categories_sizes":[],"default_left":[0,0,0,1,0,0,0,0,0,0,0,0,0,0,0,0,0],"id":45,"left_children":[1,-1,3,5,7,9,11,13,15,-1,-1,-1,-1,-1,-1,-1,-1],"loss_changes":[1.9808516E1,0E0,1.4643846E0,3.7614796E0,2.8521304E0,3.5458097E0,4.358717E0,4.315485E0,3.0609393E0,0E0,0E0,0E0,0E0,0E0,0E0,0E0,0E0],"parents":[2147483647,0,0,2,2,3,3,4,4,5,5,6,6,7,7,8,8],"right_children":[2,-1,4,6,8,10,12,14,16,-1,-1,-1,-1,-1,-1,-1,-1],"split_conditions":[1.5E-1,-4.7508817E-2,2.03E-1,2.47483E3,9.351769E3,1E0,6.22E-2,-1.495E-1,2.8E-1,-8.70686E-3,4.085638E-2,-2.132791E-2,2.5775898E-2,3.0322013E-2,-8.911615E-3,1.5632961E-3,3.4762077E-2],"split_indices":[8,0,8,7,1,12,6,5,0,0,0,0,0,0,0,0,0],"split_type":[0,0,0,0,0,0,0,0,0,0,0,0,0,0,0,0,0],"sum_hessian":[1.361117E2,1.7965683E1,1.1814601E2,3.7529995E1,8.061602E1,1.9505257E1,1.8024738E1,5.335423E1,2.7261791E1,4.2382097E0,1.5267046E1,1.0388061E1,7.636677E0,7.242537E0,4.611169E1,1.5615204E1,1.1646587E1],"tree_param":{"num_deleted":"0","num_feature":"14","num_nodes":"17","size_leaf_vector":"1"}},{"base_weights":[-7.978799E-4,-4.7381274E-2,1.4313687E-1,1.18992776E-1,6.5883225E-1,1.5708947E-1,-4.352365E-1,6.277677E-2,-1.00169316E-1,5.902093E-3,4.0026054E-2,-3.219277E-2,1.4386927E-2,-3.130298E-2,2.1764582E-2],"categories":[],"categories_nodes":[],"categories_segments":[],"categories_sizes":[],"default_left":[0,0,1,1,0,1,0,0,0,0,0,0,0,0,0],"id":46,"left_children":[1,-1,3,5,7,9,11,-1,13,-1,-1,-1,-1,-1,-1],"loss_changes":[1.8731323E1,0E0,1.4071782E0,2.500693E0,2.442719E0,2.6320987E0,1.3427626E0,0E0,1.167369E0,0E0,0E0,0E0,0E0,0E0,0E0],"parents":[2147483647,0,0,2,2,3,3,4,4,5,5,6,6,8,8],"right_children":[2,-1,4,6,8,10,12,-1,14,-1,-1,-1,-1,-1,-1],"split_conditions":[1.5E-1,-4.7381274E-2,2.6E-1,1.3E-1,3.25E-1,8E-2,9.324061E4,6.277677E-2,1E0,5.902093E-3,4.0026054E-2,-3.219277E-2,1.4386927E-2,-3.130298E-2,2.1764582E-2],"split_indices":[8,0,5,5,5,5,7,0,12,0,0,0,0,0,0],"split_type":[0,0,0,0,0,0,0,0,0,0,0,0,0,0,0],"sum_hessian":[1.3545064E2,1.7136972E1,1.1831367E2,1.1419783E2,4.115832E0,1.0752344E2,6.674399E0,1.9380248E0,2.177807E0,1.024873E2,5.0361385E0,5.2646794E0,1.4097196E0,1.0133611E0,1.164446E0],"tree_param":{"num_deleted":"0","num_feature":"14","num_nodes":"15","size_leaf_vector":"1"}},{"base_weights":[-6.875908E-4,-4.7249213E-2,1.3628383E-1,1.725757E-1,-1.7863004E-1,1.3415463E-1,1.0764157E0,-3.8736874E-1,4.1475434E-2,8.232248E-3,-3.0421197E-2,1.2738372E-2,8.4033206E-2,1.9068597E-2,-2.501606E-2],"categories":[],"categories_nodes":[],"categories_segments":[],"categories_sizes":[],"default_left":[0,0,1,1,0,0,0,0,0,0,0,0,0,0,0],"id":47,"left_children":[1,-1,3,5,7,9,11,13,-1,-1,-1,-1,-1,-1,-1],"loss_changes":[1.7713406E1,0E0,1.3977873E0,3.597566E0,3.0256429E0,2.466301E0,1.6825552E0,1.1744488E0,0E0,0E0,0E0,0E0,0E0,0E0,0E0],"parents":[2147483647,0,0,2,2,3,3,4,4,5,5,6,6,7,7],"right_children":[2,-1,4,6,8,10,12,14,-1,-1,-1,-1,-1,-1,-1],"split_conditions":[1.5E-1,-4.7249213E-2,1.248E-1,1.155E-1,1.999E-1,4.145E-1,5.07858E3,-4E-1,4.1475434E-2,8.232248E-3,-3.0421197E-2,1.2738372E-2,8.4033206E-2,1.9068597E-2,-2.501606E-2],"split_indices":[8,0,6,6,6,8,7,5,0,0,0,0,0,0,0],"split_type":[0,0,0,0,0,0,0,0,0,0,0,0,0,0,0],"sum_hessian":[1.3495482E2,1.6348343E1,1.1860648E2,1.0675556E2,1.18509245E1,1.0350416E2,3.2514E0,1.0328194E1,1.5227306E0,1.0016947E2,3.3346848E0,1.9802763E0,1.2711238E0,1.0186943E0,9.3095E0],"tree_param":{"num_deleted":"0","num_feature":"14","num_nodes":"15","size_leaf_vector":"1"}},{"base_weights":[-3.7265965E-4,-4.711249E-2,1.301396E-1,5.334935E-1,1.00863464E-1,9.728971E-1,-1.5129948E-1,6.5295786E-2,4.700422E-1,6.463135E-2,1.7606849E-3,-3.0194303E-2,2.6968753E-2,1.0816614E-2,-4.2529316E-3,-2.5408436E-2,5.7300664E-2],"categories":[],"categories_nodes":[],"categories_segments":[],"categories_sizes":[],"default_left":[0,0,0,0,0,1,1,0,0,0,0,0,0,0,0,0,0],"id":48,"left_children":[1,-1,3,5,7,9,11,13,15,-1,-1,-1,-1,-1,-1,-1,-1],"loss_changes":[1.676487E1,0E0,1.3606985E0,2.516124E0,1.4519501E0,1.4325862E0,1.5581301E0,2.3835878E0,7.0368023E0,0E0,0E0,0E0,0E0,0E0,0E0,0E0,0E0],"parents":[2147483647,0,0,2,2,3,3,4,4,5,5,6,6,7,7,8,8],"right_children":[2,-1,4,6,8,10,12,14,16,-1,-1,-1,-1,-1,-1,-1,-1],"split_conditions":[1.5E-1,-4.711249E-2,1.6E-1,3.55E-1,2E0,8.27443E3,1.35E-1,4.7E1,6.6E1,6.463135E-2,1.7606849E-3,-3.0194303E-2,2.6968753E-2,1.0816614E-2,-4.2529316E-3,-2.5408436E-2,5.7300664E-2],"split_indices":[8,0,8,0,10,7,5,11,11,0,0,0,0,0,0,0,0],"split_type":[0,0,0,0,0,0,0,0,0,0,0,0,0,0,0,0,0],"sum_hessian":[1.3438368E2,1.5597861E1,1.1878582E2,6.8727856E0,1.1191303E2,3.930212E0,2.9425733E0,1.0315196E2,8.761072E0,2.6485732E0,1.2816389E0,1.8536E0,1.0889733E0,5.124035E1,5.1911613E1,3.6815987E0,5.0794735E0],"tree_param":{"num_deleted":"0","num_feature":"14","num_nodes":"17","size_leaf_vector":"1"}},{"base_weights":[-1.2214799E-4,-4.697095E-2,1.24270916E-1,1.088323E-1,4.5224562E-2,2.6012966E-1,9.407229E-3,3.0467553E-2,2.3988932E-3,2.3616297E-2,-3.642813E-3],"categories":[],"categories_nodes":[],"categories_segments":[],"categories_sizes":[],"default_left":[0,0,1,0,0,0,0,0,0,0,0],"id":49,"left_children":[1,-1,3,5,-1,7,9,-1,-1,-1,-1],"loss_changes":[1.5869727E1,0E0,1.3462933E0,1.7838616E0,0E0,3.4568121E0,2.8027701E0,0E0,0E0,0E0,0E0],"parents":[2147483647,0,0,2,2,3,3,5,5,6,6],"right_children":[2,-1,4,6,-1,8,10,-1,-1,-1,-1],"split_conditions":[1.5E-1,-4.697095E-2,1.4655318E6,2.15E-1,4.5224562E-2,9.393449E2,-1.25E-1,3.0467553E-2,2.3988932E-3,2.3616297E-2,-3.642813E-3],"split_indices":[8,0,7,8,0,1,5,0,0,0,0],"split_type":[0,0,0,0,0,0,0,0,0,0,0],"sum_hessian":[1.3382295E2,1.4883681E1,1.1893928E2,1.1774881E2,1.1904663E0,4.6052834E1,7.169598E1,1.6696545E1,2.9356287E1,1.0102859E1,6.1593117E1],"tree_param":{"num_deleted":"0","num_feature":"14","num_nodes":"11","size_leaf_vector":"1"}},{"base_weights":[1.12540765E-4,-4.682444E-2,1.1864866E-1,6.315877E-2,3.2986888E-1,1.4470531E-1,-5.0890326E-1,1.2502394E0,6.500824E-2,-1.6944604E-2,1.1943246E-2,1.753632E-3,-3.9905846E-2,9.144276E-2,1.0802139E-2,1.189652E-2,-4.311092E-2],"categories":[],"categories_nodes":[],"categories_segments":[],"categories_sizes":[],"default_left":[0,0,0,1,0,0,0,0,1,0,0,0,0,0,0,0,0],"id":50,"left_children":[1,-1,3,5,7,9,11,13,15,-1,-1,-1,-1,-1,-1,-1,-1],"loss_changes":[1.502528E1,0E0,1.3871868E0,4.569512E0,5.9537606E0,3.9573584E0,1.9545195E0,2.8826742E0,3.4567292E0,0E0,0E0,0E0,0E0,0E0,0E0,0E0,0E0],"parents":[2147483647,0,0,2,2,3,3,4,4,5,5,6,6,7,7,8,8],"right_children":[2,-1,4,6,8,10,12,14,16,-1,-1,-1,-1,-1,-1,-1,-1],"split_conditions":[1.5E-1,-4.682444E-2,7.925877E4,9.52476E3,8.4507805E4,2E-1,3.5E1,7E0,6.8E1,-1.6944604E-2,1.1943246E-2,1.753632E-3,-3.9905846E-2,9.144276E-2,1.0802139E-2,1.189652E-2,-4.311092E-2],"split_indices":[8,0,1,7,1,0,11,2,11,0,0,0,0,0,0,0,0],"split_type":[0,0,0,0,0,0,0,0,0,0,0,0,0,0,0,0,0],"sum_hessian":[1.3333633E2,1.4204044E1,1.19132286E2,9.537518E1,2.3757101E1,8.412968E1,1.1245505E1,4.477559E0,1.9279541E1,1.3287395E1,7.0842285E1,4.20852E0,7.036986E0,2.378465E0,2.0990942E0,1.687572E1,2.4038236E0],"tree_param":{"num_deleted":"0","num_feature":"14","num_nodes":"17","size_leaf_vector":"1"}},{"base_weights":[-2.3207533E-4,-4.667282E-2,1.127706E-1,8.954652E-2,6.1736125E-1,1.2338942E-1,-4.7127828E-1,5.9534527E-2,-1.1557352E-1,-5.3326595E-3,1.0923821E-2,-4.7799807E-2,5.5226064E-3,2.069269E-2,-3.0506754E-2],"categories":[],"categories_nodes":[],"categories_segments":[],"categories_sizes":[],"default_left":[0,0,1,1,0,0,0,0,0,0,0,0,0,0,0],"id":51,"left_children":[1,-1,3,5,7,9,11,-1,13,-1,-1,-1,-1,-1,-1],"loss_changes":[1.4213231E1,0E0,1.3535607E0,2.2617612E0,2.289177E0,2.435728E0,2.0272336E0,0E0,1.0795914E0,0E0,0E0,0E0,0E0,0E0,0E0],"parents":[2147483647,0,0,2,2,3,3,4,4,5,5,6,6,8,8],"right_children":[2,-1,4,6,8,10,12,-1,14,-1,-1,-1,-1,-1,-1],"split_conditions":[1.5E-1,-4.667282E-2,2.6E-1,1.4E-1,3.25E-1,1E0,9.351769E3,5.9534527E-2,1E0,-5.3326595E-3,1.0923821E-2,-4.7799807E-2,5.5226064E-3,2.069269E-2,-3.0506754E-2],"split_indices":[8,0,5,5,5,12,1,0,2,0,0,0,0,0,0],"split_type":[0,0,0,0,0,0,0,0,0,0,0,0,0,0,0],"sum_hessian":[1.3277951E2,1.3557274E1,1.1922223E2,1.1510206E2,4.1201773E0,1.09287125E2,5.8149333E0,1.9613689E0,2.1588085E0,3.1926395E1,7.7360725E1,2.8210065E0,2.9939265E0,1.1214687E0,1.0373398E0],"tree_param":{"num_deleted":"0","num_feature":"14","num_nodes":"15","size_leaf_vector":"1"}},{"base_weights":[-6.191445E-4,-4.6515953E-2,1.070352E-1,5.3378362E-2,3.1111273E-1,1.3126878E-1,-4.9901366E-1,1.1850139E0,5.718147E-2,-1.6617669E-2,1.1023802E-2,1.9862039E-2,-3.224089E-2,8.611699E-2,1.0286745E-2,3.6216047E-2,-9.046803E-3],"categories":[],"categories_nodes":[],"categories_segments":[],"categories_sizes":[],"default_left":[0,0,0,1,0,0,0,0,1,0,0,0,0,0,0,0,0],"id":52,"left_children":[1,-1,3,5,7,9,11,13,15,-1,-1,-1,-1,-1,-1,-1,-1],"loss_changes":[1.3445904E1,0E0,1.3018634E0,4.2195244E0,5.448924E0,3.605581E0,1.8425112E0,2.5641804E0,3.3579955E0,0E0,0E0,0E0,0E0,0E0,0E0,0E0,0E0],"parents":[2147483647,0,0,2,2,3,3,4,4,5,5,6,6,7,7,8,8],"right_children":[2,-1,4,6,8,10,12,14,16,-1,-1,-1,-1,-1,-1,-1,-1],"split_conditions":[1.5E-1,-4.6515953E-2,7.925877E4,9.52476E3,8.4507805E4,2E-1,2.8E1,7E0,9.8E-3,-1.6617669E-2,1.1023802E-2,1.9862039E-2,-3.224089E-2,8.611699E-2,1.0286745E-2,3.6216047E-2,-9.046803E-3],"split_indices":[8,0,1,7,1,0,11,2,6,0,0,0,0,0,0,0,0],"split_type":[0,0,0,0,0,0,0,0,0,0,0,0,0,0,0,0,0],"sum_hessian":[1.323483E2,1.2941774E1,1.19406525E2,9.5546616E1,2.3859915E1,8.44071E1,1.1139519E1,4.5465045E0,1.931341E1,1.3180518E1,7.122658E1,1.3173456E0,9.822173E0,2.4457498E0,2.100755E0,4.543084E0,1.4770327E1],"tree_param":{"num_deleted":"0","num_feature":"14","num_nodes":"17","size_leaf_vector":"1"}},{"base_weights":[-3.1714133E-4,-4.6353687E-2,1.02444254E-1,1.23465076E-1,-3.8264084E-1,1.4271697E-1,-6.179335E-1,-6.625422E-1,1.7641798E-2,5.5883382E-3,5.8139186E-2,-8.67351E-3,-3.7388403E-2,-4.6049985E-3,-4.104725E-2],"categories":[],"categories_nodes":[],"categories_segments":[],"categories_sizes":[],"default_left":[0,0,1,0,0,0,0,0,0,0,0,0,0,0,0],"id":53,"left_children":[1,-1,3,5,7,9,11,13,-1,-1,-1,-1,-1,-1,-1],"loss_changes":[1.2743192E1,0E0,1.2755073E0,1.7468631E0,1.3139161E0,3.4716618E0,5.083859E-2,2.992096E-1,0E0,0E0,0E0,0E0,0E0,0E0,0E0],"parents":[2147483647,0,0,2,2,3,3,4,4,5,5,6,6,7,7],"right_children":[2,-1,4,6,8,10,12,14,-1,-1,-1,-1,-1,-1,-1],"split_conditions":[1.5E-1,-4.6353687E-2,8.2E1,6E0,3.8E0,3E0,1.8802E3,2.35E-1,1.7641798E-2,5.5883382E-3,5.8139186E-2,-8.67351E-3,-3.7388403E-2,-4.6049985E-3,-4.104725E-2],"split_indices":[8,0,11,10,3,10,7,0,0,0,0,0,0,0,0],"split_type":[0,0,0,0,0,0,0,0,0,0,0,0,0,0,0],"sum_hessian":[1.3181088E2,1.2356033E1,1.1945485E2,1.1520788E2,4.2469745E0,1.13079056E2,2.1288211E0,3.1480742E0,1.0989004E0,1.1082601E2,2.2530437E0,1.0094053E0,1.1194159E0,1.0278816E0,2.1201925E0],"tree_param":{"num_deleted":"0","num_feature":"14","num_nodes":"15","size_leaf_vector":"1"}},{"base_weights":[-8.582838E-4,-4.61859E-2,9.700334E-2,4.1963633E-2,2.8771105E-1,1.1525704E-1,-5.5419683E-1,8.88598E-1,5.145584E-2,8.297853E-3,-3.3512633E-2,1.6570957E-3,-4.7476023E-2,6.352592E-3,5.6249738E-2,1.0818966E-2,-4.251437E-2],"categories":[],"categories_nodes":[],"categories_segments":[],"categories_sizes":[],"default_left":[0,0,0,1,0,0,0,0,1,0,0,0,0,0,0,0,0],"id":54,"left_children":[1,-1,3,5,7,9,11,13,15,-1,-1,-1,-1,-1,-1,-1,-1],"loss_changes":[1.2056141E1,0E0,1.2548827E0,4.20787E0,3.767802E0,3.5077164E0,2.4823308E0,1.2108116E0,3.2093976E0,0E0,0E0,0E0,0E0,0E0,0E0,0E0,0E0],"parents":[2147483647,0,0,2,2,3,3,4,4,5,5,6,6,7,7,8,8],"right_children":[2,-1,4,6,8,10,12,14,16,-1,-1,-1,-1,-1,-1,-1,-1],"split_conditions":[1.5E-1,-4.61859E-2,9.965029E3,9.52476E3,8.4507805E4,9.724054E3,3.5E1,7.925877E4,6.8E1,8.297853E-3,-3.3512633E-2,1.6570957E-3,-4.7476023E-2,6.352592E-3,5.6249738E-2,1.0818966E-2,-4.251437E-2],"split_indices":[8,0,1,7,1,1,11,1,11,0,0,0,0,0,0,0,0],"split_type":[0,0,0,0,0,0,0,0,0,0,0,0,0,0,0,0,0],"sum_hessian":[1.3150139E2,1.17986E1,1.1970278E2,9.3839905E1,2.5862875E1,8.428444E1,9.555465E0,6.519676E0,1.9343199E1,7.991512E1,4.369323E0,4.2127213E0,5.3427434E0,1.9086046E0,4.6110716E0,1.6994965E1,2.3482347E0],"tree_param":{"num_deleted":"0","num_feature":"14","num_nodes":"17","size_leaf_vector":"1"}},{"base_weights":[-1.6366908E-3,-4.6012465E-2,9.1629766E-2,7.714511E-2,4.167649E-2,-7.82958E-2,1.5832113E-1,1.577146E-2,-1.7193012E-2,-1.1441491E-2,1.301702E-2],"categories":[],"categories_nodes":[],"categories_segments":[],"categories_sizes":[],"default_left":[0,0,1,0,0,0,0,0,0,0,0],"id":55,"left_children":[1,-1,3,5,-1,7,9,-1,-1,-1,-1],"loss_changes":[1.1403654E1,0E0,1.2343736E0,1.521996E0,0E0,4.4699697E0,3.1768513E0,0E0,0E0,0E0,0E0],"parents":[2147483647,0,0,2,2,3,3,5,5,6,6],"right_children":[2,-1,4,6,-1,8,10,-1,-1,-1,-1],"split_conditions":[1.5E-1,-4.6012465E-2,1.4655318E6,5.44E-2,4.167649E-2,8.036493E3,1.03852E3,1.577146E-2,-1.7193012E-2,-1.1441491E-2,1.301702E-2],"split_indices":[8,0,7,6,0,1,7,0,0,0,0],"split_type":[0,0,0,0,0,0,0,0,0,0,0],"sum_hessian":[1.3111829E2,1.1268101E1,1.1985018E2,1.1863791E2,1.2122717E0,4.0713207E1,7.7924706E1,1.632381E1,2.4389395E1,1.5992412E1,6.1932293E1],"tree_param":{"num_deleted":"0","num_feature":"14","num_nodes":"11","size_leaf_vector":"1"}},{"base_weights":[-1.7224915E-3,-4.5833264E-2,8.732646E-2,1.7637262E-2,2.3547612E-1,-5.9634954E-1,1.2610574E-1,-4.8614787E-3,7.168039E-1,-3.888407E-2,3.7338953E-2,1.08813485E-2,-1.8240083E-2,-1.8321164E-2,1.7155737E-2,6.260163E-2,7.086725E-3],"categories":[],"categories_nodes":[],"categories_segments":[],"categories_sizes":[],"default_left":[0,0,0,0,0,1,1,0,0,0,0,0,0,0,0,0,0],"id":56,"left_children":[1,-1,3,5,7,9,11,13,15,-1,-1,-1,-1,-1,-1,-1,-1],"loss_changes":[1.0805791E1,0E0,1.2438831E0,5.622254E0,4.4676843E0,3.6689472E0,3.296784E0,3.4890003E0,3.7803469E0,0E0,0E0,0E0,0E0,0E0,0E0,0E0,0E0],"parents":[2147483647,0,0,2,2,3,3,4,4,5,5,6,6,7,7,8,8],"right_children":[2,-1,4,6,8,10,12,14,16,-1,-1,-1,-1,-1,-1,-1,-1],"split_conditions":[1.5E-1,-4.5833264E-2,9.351769E3,1E0,2.05E-1,6.4E1,8.15247E3,2.65E-1,2.305E-1,-3.888407E-2,3.7338953E-2,1.08813485E-2,-1.8240083E-2,-1.8321164E-2,1.7155737E-2,6.260163E-2,7.086725E-3],"split_indices":[8,0,1,12,5,11,7,8,8,0,0,0,0,0,0,0,0],"split_type":[0,0,0,0,0,0,0,0,0,0,0,0,0,0,0,0,0],"sum_hessian":[1.3064508E2,1.0763227E1,1.1988184E2,8.22913E1,3.7590553E1,1.1679797E1,7.0611496E1,2.573193E1,1.1858623E1,1.0661422E1,1.0183752E0,5.9985012E1,1.0626487E1,1.259362E1,1.31383095E1,5.5323586E0,6.3262634E0],"tree_param":{"num_deleted":"0","num_feature":"14","num_nodes":"17","size_leaf_vector":"1"}},{"base_weights":[-1.7081217E-3,-4.5648176E-2,8.3348475E-2,6.791033E-2,3.8147114E-2,1.02173164E-1,-5.867898E-1,-3.5757434E-3,8.925774E-3,-4.2878088E-2,1.8111523E-2],"categories":[],"categories_nodes":[],"categories_segments":[],"categories_sizes":[],"default_left":[0,0,1,0,0,0,1,0,0,0,0],"id":57,"left_children":[1,-1,3,5,-1,7,9,-1,-1,-1,-1],"loss_changes":[1.0243677E1,0E0,1.2166089E0,2.7363064E0,0E0,1.5274067E0,1.8734426E0,0E0,0E0,0E0,0E0],"parents":[2147483647,0,0,2,2,3,3,5,5,6,6],"right_children":[2,-1,4,6,-1,8,10,-1,-1,-1,-1],"split_conditions":[1.5E-1,-4.5648176E-2,1.999E-1,4.17E-1,3.8147114E-2,1E0,2.58349E4,-3.5757434E-3,8.925774E-3,-4.2878088E-2,1.8111523E-2],"split_indices":[8,0,6,8,0,12,7,0,0,0,0],"split_type":[0,0,0,0,0,0,0,0,0,0,0],"sum_hessian":[1.301806E2,1.0282735E1,1.19897865E2,1.1831017E2,1.5876925E0,1.13228455E2,5.081718E0,3.4591602E1,7.8636856E1,4.0286465E0,1.0530716E0],"tree_param":{"num_deleted":"0","num_feature":"14","num_nodes":"11","size_leaf_vector":"1"}},{"base_weights":[-1.953361E-3,-4.5457102E-2,7.922971E-2,1.0685748E-2,2.2488785E-1,-5.758034E-1,1.1157768E-1,1.0333021E0,8.531848E-2,2.3624348E-2,-4.1603692E-2,9.903972E-3,-1.784196E-2,7.361648E-2,-3.9147907E-3,-1.638331E-2,1.908536E-2],"categories":[],"categories_nodes":[],"categories_segments":[],"categories_sizes":[],"default_left":[0,0,0,0,0,0,1,0,0,0,0,0,0,0,0,0,0],"id":58,"left_children":[1,-1,3,5,7,9,11,13,15,-1,-1,-1,-1,-1,-1,-1,-1],"loss_changes":[9.706666E0,0E0,1.2055988E0,4.994825E0,4.274721E0,3.7223945E0,2.9853463E0,2.849648E0,4.2947426E0,0E0,0E0,0E0,0E0,0E0,0E0,0E0,0E0],"parents":[2147483647,0,0,2,2,3,3,4,4,5,5,6,6,7,7,8,8],"right_children":[2,-1,4,6,8,10,12,14,16,-1,-1,-1,-1,-1,-1,-1,-1],"split_conditions":[1.5E-1,-4.5457102E-2,9.351769E3,1E0,9.549148E3,1.7245E2,8.15247E3,3E0,2.58349E4,2.3624348E-2,-4.1603692E-2,9.903972E-3,-1.784196E-2,7.361648E-2,-3.9147907E-3,-1.638331E-2,1.908536E-2],"split_indices":[8,0,1,12,1,7,7,2,7,0,0,0,0,0,0,0,0],"split_type":[0,0,0,0,0,0,0,0,0,0,0,0,0,0,0,0,0],"sum_hessian":[1.2981938E2,9.825431E0,1.1999396E2,8.232618E1,3.766778E1,1.1392714E1,7.0933464E1,4.602965E0,3.3064816E1,2.072268E0,9.320446E0,6.0363388E1,1.0570076E1,3.0670943E0,1.5358707E0,1.3770971E1,1.9293844E1],"tree_param":{"num_deleted":"0","num_feature":"14","num_nodes":"17","size_leaf_vector":"1"}},{"base_weights":[-2.037657E-3,-4.525994E-2,7.549223E-2,5.060594E-2,4.8319042E-1,8.6048536E-2,-7.437529E-1,6.388772E-2,-9.5815405E-2,2.6112578E-3,2.8852452E-2,-1.531319E-3,-4.9782593E-2,-4.0040854E-2,2.8358538E-2],"categories":[],"categories_nodes":[],"categories_segments":[],"categories_sizes":[],"default_left":[0,0,1,1,0,1,0,0,0,0,0,0,0,0,0],"id":59,"left_children":[1,-1,3,5,7,9,11,-1,13,-1,-1,-1,-1,-1,-1],"loss_changes":[9.202974E0,0E0,1.2038713E0,3.307805E0,3.272774E0,1.8164476E0,8.72144E-1,0E0,2.740482E0,0E0,0E0,0E0,0E0,0E0,0E0],"parents":[2147483647,0,0,2,2,3,3,4,4,5,5,6,6,8,8],"right_children":[2,-1,4,6,8,10,12,-1,14,-1,-1,-1,-1,-1,-1],"split_conditions":[1.5E-1,-4.525994E-2,2.1E-1,1.4E-1,2.29E-1,8E-2,1.7E-1,6.388772E-2,9.328942E3,2.6112578E-3,2.8852452E-2,-1.531319E-3,-4.9782593E-2,-4.0040854E-2,2.8358538E-2],"split_indices":[8,0,5,5,8,5,8,0,1,0,0,0,0,0,0],"split_type":[0,0,0,0,0,0,0,0,0,0,0,0,0,0,0],"sum_hessian":[1.2945386E2,9.390189E0,1.20063675E2,1.1421595E2,5.8477263E0,1.1019113E2,4.0248175E0,1.9563031E0,3.8914232E0,1.04124695E2,6.0664377E0,1.3433557E0,2.6814616E0,1.7851977E0,2.1062255E0],"tree_param":{"num_deleted":"0","num_feature":"14","num_nodes":"15","size_leaf_vector":"1"}},{"base_weights":[-2.1414044E-3,-4.505661E-2,7.190134E-2,1.1835866E-2,2.3325554E-1,1.0106137E0,-2.5478302E-2,-4.072739E-2,3.596885E-1,-1.0108831E-2,9.200128E-2,-3.7526474E-3,3.2929238E-2,1.1466042E-2,4.9261328E-2],"categories":[],"categories_nodes":[],"categories_segments":[],"categories_sizes":[],"default_left":[0,0,0,0,0,0,0,0,0,0,0,0,0,0,0],"id":60,"left_children":[1,-1,3,5,7,9,11,-1,13,-1,-1,-1,-1,-1,-1],"loss_changes":[8.726582E0,0E0,1.1714202E0,3.355318E0,4.639804E0,3.6332552E0,3.0031044E0,0E0,2.2183354E0,0E0,0E0,0E0,0E0,0E0,0E0],"parents":[2147483647,0,0,2,2,3,3,4,4,5,5,6,6,8,8],"right_children":[2,-1,4,6,8,10,12,-1,14,-1,-1,-1,-1,-1,-1],"split_conditions":[1.5E-1,-4.505661E-2,3.45E-1,1.7245E2,8.2475366E2,8.213891E2,2E0,-4.072739E-2,1E0,-1.0108831E-2,9.200128E-2,-3.7526474E-3,3.2929238E-2,1.1466042E-2,4.9261328E-2],"split_indices":[8,0,0,7,1,1,10,0,9,0,0,0,0,0,0],"split_type":[0,0,0,0,0,0,0,0,0,0,0,0,0,0,0],"sum_hessian":[1.2912773E2,8.97593E0,1.201518E2,8.833988E1,3.1811918E1,2.2421074E0,8.609778E1,2.8392575E0,2.897266E1,1.2177373E0,1.0243701E0,8.110995E1,4.987825E0,2.5106783E1,3.865877E0],"tree_param":{"num_deleted":"0","num_feature":"14","num_nodes":"15","size_leaf_vector":"1"}},{"base_weights":[-1.4950394E-3,-4.4847034E-2,6.93089E-2,8.948772E-2,-3.903711E-1,1.0777786E-1,-6.133511E-1,-3.961458E-2,1.4467718E-1,3.931737E-3,5.272183E-2,-3.766119E-2,-9.086625E-3,-7.246632E-3,1.8237488E-2],"categories":[],"categories_nodes":[],"categories_segments":[],"categories_sizes":[],"default_left":[0,0,1,0,1,0,0,0,0,0,0,0,0,0,0],"id":61,"left_children":[1,-1,3,5,7,9,11,-1,13,-1,-1,-1,-1,-1,-1],"loss_changes":[8.2903595E0,0E0,1.1591455E0,1.5690546E0,1.2507342E0,3.0842683E0,5.1160812E-2,0E0,2.5119576E-1,0E0,0E0,0E0,0E0,0E0,0E0],"parents":[2147483647,0,0,2,2,3,3,4,4,5,5,6,6,8,8],"right_children":[2,-1,4,6,8,10,12,-1,14,-1,-1,-1,-1,-1,-1],"split_conditions":[1.5E-1,-4.4847034E-2,8.2E1,6E0,5.44E-2,3E0,2.445E-1,-3.961458E-2,2.35E-1,3.931737E-3,5.272183E-2,-3.766119E-2,-9.086625E-3,-7.246632E-3,1.8237488E-2],"split_indices":[8,0,11,10,6,10,8,0,8,0,0,0,0,0,0],"split_type":[0,0,0,0,0,0,0,0,0,0,0,0,0,0,0],"sum_hessian":[1.2878004E2,8.581632E0,1.2019841E2,1.1591534E2,4.283071E0,1.1380053E2,2.1148045E0,2.171264E0,2.111807E0,1.1145251E2,2.3480265E0,1.0344578E0,1.0803466E0,1.0592691E0,1.052538E0],"tree_param":{"num_deleted":"0","num_feature":"14","num_nodes":"15","size_leaf_vector":"1"}},{"base_weights":[-2.0039815E-3,-4.4631135E-2,6.558094E-2,5.0936393E-2,3.5129897E-2,9.746888E-2,-4.0432948E-1,3.1055093E-3,4.7218822E-2,-4.2299267E-2,-8.00377E-3],"categories":[],"categories_nodes":[],"categories_segments":[],"categories_sizes":[],"default_left":[0,0,1,1,0,1,0,0,0,0,0],"id":62,"left_children":[1,-1,3,5,-1,7,9,-1,-1,-1,-1],"loss_changes":[7.856754E0,0E0,1.0962509E0,2.5752044E0,0E0,3.2175508E0,1.0829496E0,0E0,0E0,0E0,0E0],"parents":[2147483647,0,0,2,2,3,3,5,5,6,6],"right_children":[2,-1,4,6,-1,8,10,-1,-1,-1,-1],"split_conditions":[1.5E-1,-4.4631135E-2,1.999E-1,1.248E-1,3.5129897E-2,1.155E-1,8.67E2,3.1055093E-3,4.7218822E-2,-4.2299267E-2,-8.00377E-3],"split_indices":[8,0,6,6,0,6,1,0,0,0,0],"split_type":[0,0,0,0,0,0,0,0,0,0,0],"sum_hessian":[1.285548E2,8.206323E0,1.2034847E2,1.1869962E2,1.6488557E0,1.08405464E2,1.0294158E1,1.050912E2,3.314258E0,2.7884984E0,7.50566E0],"tree_param":{"num_deleted":"0","num_feature":"14","num_nodes":"11","size_leaf_vector":"1"}},{"base_weights":[-2.0713941E-3,-4.440887E-2,6.252571E-2,4.9099978E-2,3.7991162E-2,1.7994483E-1,-3.6101058E-2,2.5117237E-2,-7.870257E-4,1.9429933E-2,-5.633634E-3],"categories":[],"categories_nodes":[],"categories_segments":[],"categories_sizes":[],"default_left":[0,0,1,0,0,0,0,0,0,0,0],"id":63,"left_children":[1,-1,3,5,-1,7,9,-1,-1,-1,-1],"loss_changes":[7.4548E0,0E0,1.0993809E0,1.3464332E0,0E0,3.008889E0,2.438116E0,0E0,0E0,0E0,0E0],"parents":[2147483647,0,0,2,2,3,3,5,5,6,6],"right_children":[2,-1,4,6,-1,8,10,-1,-1,-1,-1],"split_conditions":[1.5E-1,-4.440887E-2,1.4655318E6,2.15E-1,3.7991162E-2,9.393449E2,-1.25E-1,2.5117237E-2,-7.870257E-4,1.9429933E-2,-5.633634E-3],"split_indices":[8,0,7,8,0,1,5,0,0,0,0],"split_type":[0,0,0,0,0,0,0,0,0,0,0],"sum_hessian":[1.2826765E2,7.8490744E0,1.2041858E2,1.1919404E2,1.2245425E0,4.656748E1,7.2626564E1,1.6997034E1,2.9570444E1,1.0471587E1,6.2154972E1],"tree_param":{"num_deleted":"0","num_feature":"14","num_nodes":"11","size_leaf_vector":"1"}},{"base_weights":[-1.8081008E-3,-4.4180192E-2,5.998801E-2,7.936369E-2,-3.8454747E-1,-2.0891468E-1,1.2350118E-1,-6.577389E-1,1.6000794E-2,3.387733E-2,-2.555131E-2,7.569439E-2,4.559541E-3,-5.223694E-3,-4.0505867E-2],"categories":[],"categories_nodes":[],"categories_segments":[],"categories_sizes":[],"default_left":[0,0,1,0,0,0,0,0,0,0,0,0,0,0,0],"id":64,"left_children":[1,-1,3,5,7,9,11,13,-1,-1,-1,-1,-1,-1,-1],"loss_changes":[7.0800676E0,0E0,1.0765711E0,1.5170972E0,1.2197515E0,4.613449E0,4.4563484E0,2.6149714E-1,0E0,0E0,0E0,0E0,0E0,0E0,0E0],"parents":[2147483647,0,0,2,2,3,3,4,4,5,5,6,6,7,7],"right_children":[2,-1,4,6,8,10,12,14,-1,-1,-1,-1,-1,-1,-1],"split_conditions":[1.5E-1,-4.4180192E-2,8.2E1,8.2475366E2,3.8E0,3.1E1,1.7245E2,2.35E-1,1.6000794E-2,3.387733E-2,-2.555131E-2,7.569439E-2,4.559541E-3,-5.223694E-3,-4.0505867E-2],"split_indices":[8,0,11,1,3,11,7,0,0,0,0,0,0,0,0],"split_type":[0,0,0,0,0,0,0,0,0,0,0,0,0,0,0],"sum_hessian":[1.2795692E2,7.5090013E0,1.20447914E2,1.1620445E2,4.2434587E0,1.4933693E1,1.0127076E2,3.105697E0,1.137762E0,3.4799767E0,1.1453716E1,1.2585374E0,1.0001222E2,1.0346491E0,2.0710475E0],"tree_param":{"num_deleted":"0","num_feature":"14","num_nodes":"15","size_leaf_vector":"1"}},{"base_weights":[-1.7090312E-3,-4.3945067E-2,5.738187E-2,3.4375798E-2,4.3900573E-1,6.835791E-2,-7.3523116E-1,6.054458E-2,-1.1348795E-1,-6.358797E-3,7.412216E-3,-2.17517E-3,-4.9085762E-2,-3.947365E-2,2.5461629E-2],"categories":[],"categories_nodes":[],"categories_segments":[],"categories_sizes":[],"default_left":[0,0,1,1,0,0,0,0,0,0,0,0,0,0,0],"id":65,"left_children":[1,-1,3,5,7,9,11,-1,13,-1,-1,-1,-1,-1,-1],"loss_changes":[6.722658E0,0E0,1.0519673E0,3.076464E0,3.0481565E0,1.7641921E0,8.060901E-1,0E0,2.4614341E0,0E0,0E0,0E0,0E0,0E0,0E0],"parents":[2147483647,0,0,2,2,3,3,4,4,5,5,6,6,8,8],"right_children":[2,-1,4,6,8,10,12,-1,14,-1,-1,-1,-1,-1,-1],"split_conditions":[1.5E-1,-4.3945067E-2,2.1E-1,1.4E-1,2.29E-1,1E0,1.7E-1,6.054458E-2,9.328942E3,-6.358797E-3,7.412216E-3,-2.17517E-3,-4.9085762E-2,-3.947365E-2,2.5461629E-2],"split_indices":[8,0,5,5,8,12,8,0,1,0,0,0,0,0,0],"split_type":[0,0,0,0,0,0,0,0,0,0,0,0,0,0,0],"sum_hessian":[1.2772275E2,7.185264E0,1.2053748E2,1.1471217E2,5.8253083E0,1.1073389E2,3.9782927E0,1.933017E0,3.8922913E0,3.1946976E1,7.878691E1,1.3542497E0,2.624043E0,1.7379286E0,2.154363E0],"tree_param":{"num_deleted":"0","num_feature":"14","num_nodes":"15","size_leaf_vector":"1"}},{"base_weights":[-2.0782137E-3,-4.3703478E-2,5.444877E-2,-2.2726497E-3,2.0772164E-1,9.446116E-1,-3.8201172E-2,-3.986509E-2,3.2682088E-1,-9.45856E-3,8.3565384E-2,-4.2785048E-3,3.0474344E-2,1.0174929E-2,4.599501E-2],"categories":[],"categories_nodes":[],"categories_segments":[],"categories_sizes":[],"default_left":[0,0,0,0,0,0,0,0,0,0,0,0,0,0,0],"id":66,"left_children":[1,-1,3,5,7,9,11,-1,13,-1,-1,-1,-1,-1,-1],"loss_changes":[6.3778596E0,0E0,1.0572038E0,3.0879261E0,4.1917305E0,3.0501351E0,2.7332606E0,0E0,2.0122695E0,0E0,0E0,0E0,0E0,0E0,0E0],"parents":[2147483647,0,0,2,2,3,3,4,4,5,5,6,6,8,8],"right_children":[2,-1,4,6,8,10,12,-1,14,-1,-1,-1,-1,-1,-1],"split_conditions":[1.5E-1,-4.3703478E-2,3.45E-1,1.7245E2,8.2475366E2,8.213891E2,2E0,-3.986509E-2,1E0,-9.45856E-3,8.3565384E-2,-4.2785048E-3,3.0474344E-2,1.0174929E-2,4.599501E-2],"split_indices":[8,0,0,7,1,1,10,0,9,0,0,0,0,0,0],"split_type":[0,0,0,0,0,0,0,0,0,0,0,0,0,0,0],"sum_hessian":[1.2742633E2,6.8770676E0,1.2054926E2,8.870685E1,3.1842413E1,2.3182676E0,8.638858E1,2.7703424E0,2.9072071E1,1.1944243E0,1.1238434E0,8.130984E1,5.078744E0,2.5179483E1,3.8925884E0],"tree_param":{"num_deleted":"0","num_feature":"14","num_nodes":"15","size_leaf_vector":"1"}},{"base_weights":[-1.5025025E-3,-4.3455426E-2,5.264192E-2,1.8507378E-1,-1.1577673E-2,-3.1135453E-2,2.419794E-1,-4.9458754E-1,3.8323E-2,4.6899255E-2,7.750559E-3,-4.412246E-2,1.1561862E-2,-5.688298E-3,1.1606819E-2],"categories":[],"categories_nodes":[],"categories_segments":[],"categories_sizes":[],"default_left":[0,0,1,0,0,0,0,0,0,0,0,0,0,0,0],"id":67,"left_children":[1,-1,3,5,7,-1,9,11,13,-1,-1,-1,-1,-1,-1],"loss_changes":[6.064843E0,0E0,1.0358702E0,1.9779834E0,2.0145314E0,0E0,2.1460483E0,2.406864E0,2.265788E0,0E0,0E0,0E0,0E0,0E0,0E0],"parents":[2147483647,0,0,2,2,3,3,4,4,6,6,7,7,8,8],"right_children":[2,-1,4,6,8,-1,10,12,14,-1,-1,-1,-1,-1,-1],"split_conditions":[1.5E-1,-4.3455426E-2,7.9E-3,2.5E1,1.8E-2,-3.1135453E-2,1E0,2.1E0,3.2E-1,4.6899255E-2,7.750559E-3,-4.412246E-2,1.1561862E-2,-5.688298E-3,1.1606819E-2],"split_indices":[8,0,6,11,6,0,2,3,0,0,0,0,0,0,0],"split_type":[0,0,0,0,0,0,0,0,0,0,0,0,0,0,0],"sum_hessian":[1.2713114E2,6.583646E0,1.205475E2,3.87521E1,8.1795395E1,1.8959538E0,3.6856148E1,6.824707E0,7.497069E1,3.0068653E0,3.384928E1,4.307242E0,2.517465E0,4.2238426E1,3.2732265E1],"tree_param":{"num_deleted":"0","num_feature":"14","num_nodes":"15","size_leaf_vector":"1"}},{"base_weights":[-1.8856416E-3,-4.320092E-2,4.993975E-2,3.707829E-2,3.607895E-2,1.4528346E-1,-5.7485115E-2,4.209559E-3,3.1057218E-2,1.75921E-2,-9.585659E-3],"categories":[],"categories_nodes":[],"categories_segments":[],"categories_sizes":[],"default_left":[0,0,1,0,0,0,0,0,0,0,0],"id":68,"left_children":[1,-1,3,5,-1,7,9,-1,-1,-1,-1],"loss_changes":[5.7555223E0,0E0,1.0231866E0,1.2394534E0,0E0,1.5871639E0,3.634458E0,0E0,0E0,0E0,0E0],"parents":[2147483647,0,0,2,2,3,3,5,5,6,6],"right_children":[2,-1,4,6,-1,8,10,-1,-1,-1,-1],"split_conditions":[1.5E-1,-4.320092E-2,1.4655318E6,4.7E1,3.607895E-2,9.132601E3,1E0,4.209559E-3,3.1057218E-2,1.75921E-2,-9.585659E-3],"split_indices":[8,0,7,11,0,1,2,0,0,0,0],"split_type":[0,0,0,0,0,0,0,0,0,0,0],"sum_hessian":[1.2684974E2,6.304276E0,1.2054546E2,1.1931584E2,1.2296163E0,5.5394146E1,6.3921696E1,5.013465E1,5.2594967E0,1.538477E1,4.8536926E1],"tree_param":{"num_deleted":"0","num_feature":"14","num_nodes":"11","size_leaf_vector":"1"}},{"base_weights":[-1.5804138E-3,-4.2939987E-2,4.8080824E-2,7.9015836E-2,-2.1755302E-1,4.534862E-2,8.896394E-1,-4.066243E-1,3.253602E-2,3.5614849E-3,-2.987122E-2,6.018042E-3,7.475688E-2,-4.1795414E-2,-8.579706E-3],"categories":[],"categories_nodes":[],"categories_segments":[],"categories_sizes":[],"default_left":[0,0,1,1,0,0,0,0,0,0,0,0,0,0,0],"id":69,"left_children":[1,-1,3,5,7,9,11,13,-1,-1,-1,-1,-1,-1,-1],"loss_changes":[5.4715962E0,0E0,1.0157814E0,2.9502366E0,2.3892844E0,1.8103185E0,1.8303833E0,9.9096763E-1,0E0,0E0,0E0,0E0,0E0,0E0,0E0],"parents":[2147483647,0,0,2,2,3,3,4,4,5,5,6,6,7,7],"right_children":[2,-1,4,6,8,10,12,14,-1,-1,-1,-1,-1,-1,-1],"split_conditions":[1.5E-1,-4.2939987E-2,1.248E-1,1.155E-1,1.999E-1,4.145E-1,5.07858E3,8.67E2,3.253602E-2,3.5614849E-3,-2.987122E-2,6.018042E-3,7.475688E-2,-4.1795414E-2,-8.579706E-3],"split_indices":[8,0,6,6,6,8,7,1,0,0,0,0,0,0,0],"split_type":[0,0,0,0,0,0,0,0,0,0,0,0,0,0,0],"sum_hessian":[1.2656004E2,6.03827E0,1.20521774E2,1.08579445E2,1.1942334E1,1.0526353E2,3.315914E0,1.0243453E1,1.6988816E0,1.0204394E2,3.219588E0,1.9884242E0,1.3274899E0,2.7195609E0,7.5238924E0],"tree_param":{"num_deleted":"0","num_feature":"14","num_nodes":"15","size_leaf_vector":"1"}},{"base_weights":[-1.6316114E-3,-4.267267E-2,4.5951974E-2,6.431448E-2,-3.7756202E-1,8.240687E-2,-6.222302E-1,-3.8879123E-2,1.4386426E-1,2.740305E-3,4.8338436E-2,-9.285294E-3,-3.724449E-2,-6.70794E-3,1.7422235E-2],"categories":[],"categories_nodes":[],"categories_segments":[],"categories_sizes":[],"default_left":[0,0,1,0,1,0,0,0,0,0,0,0,0,0,0],"id":70,"left_children":[1,-1,3,5,7,9,11,-1,13,-1,-1,-1,-1,-1,-1],"loss_changes":[5.198267E0,0E0,9.691307E-1,1.5083078E0,1.1953219E0,2.7582774E0,2.919817E-2,0E0,2.2300516E-1,0E0,0E0,0E0,0E0,0E0,0E0],"parents":[2147483647,0,0,2,2,3,3,4,4,5,5,6,6,8,8],"right_children":[2,-1,4,6,8,10,12,-1,14,-1,-1,-1,-1,-1,-1],"split_conditions":[1.5E-1,-4.267267E-2,8.2E1,6E0,5.44E-2,3E0,1.8802E3,-3.8879123E-2,2.35E-1,2.740305E-3,4.8338436E-2,-9.285294E-3,-3.724449E-2,-6.70794E-3,1.7422235E-2],"split_indices":[8,0,11,10,6,10,7,0,8,0,0,0,0,0,0],"split_type":[0,0,0,0,0,0,0,0,0,0,0,0,0,0,0],"sum_hessian":[1.2628105E2,5.7849727E0,1.2049608E2,1.16301674E2,4.194408E0,1.1417286E2,2.128809E0,2.095529E0,2.0988786E0,1.1174722E2,2.4256384E0,1.0184205E0,1.1103886E0,1.0356557E0,1.063223E0],"tree_param":{"num_deleted":"0","num_feature":"14","num_nodes":"15","size_leaf_vector":"1"}},{"base_weights":[-2.1360535E-3,-4.2399023E-2,4.3406624E-2,3.0916E-2,3.4883402E-2,1.5117978E-1,-4.726999E-2,2.3277184E-2,-1.9433874E-3,1.7841283E-2,-6.048105E-3],"categories":[],"categories_nodes":[],"categories_segments":[],"categories_sizes":[],"default_left":[0,0,1,0,0,0,0,0,0,0,0],"id":71,"left_children":[1,-1,3,5,-1,7,9,-1,-1,-1,-1],"loss_changes":[4.9339232E0,0E0,9.7200966E-1,1.1387908E0,0E0,2.865149E0,2.2377274E0,0E0,0E0,0E0,0E0],"parents":[2147483647,0,0,2,2,3,3,5,5,6,6],"right_children":[2,-1,4,6,-1,8,10,-1,-1,-1,-1],"split_conditions":[1.5E-1,-4.2399023E-2,1.4655318E6,2.15E-1,3.4883402E-2,9.393449E2,-1.25E-1,2.3277184E-2,-1.9433874E-3,1.7841283E-2,-6.048105E-3],"split_indices":[8,0,7,8,0,1,5,0,0,0,0],"split_type":[0,0,0,0,0,0,0,0,0,0,0],"sum_hessian":[1.2612509E2,5.543761E0,1.2058133E2,1.1935005E2,1.2312806E0,4.6654163E1,7.2695885E1,1.7031755E1,2.9622408E1,1.0619738E1,6.207615E1],"tree_param":{"num_deleted":"0","num_feature":"14","num_nodes":"11","size_leaf_vector":"1"}},{"base_weights":[-1.8896473E-3,-4.2119127E-2,4.178105E-2,-2.041501E-2,1.7387992E-1,-5.837184E-1,7.615378E-2,9.2230743E-1,4.257894E-2,1.8845422E-2,-4.147084E-2,6.153507E-4,3.3164676E-2,6.579962E-2,-5.3127664E-3,-1.7327579E-2,1.6046407E-2],"categories":[],"categories_nodes":[],"categories_segments":[],"categories_sizes":[],"default_left":[0,0,0,0,0,0,0,0,0,0,0,0,0,0,0,0,0],"id":72,"left_children":[1,-1,3,5,7,9,11,13,15,-1,-1,-1,-1,-1,-1,-1,-1],"loss_changes":[4.6922503E0,0E0,1.0023249E0,4.589096E0,3.795116E0,3.225576E0,2.6985185E0,2.4784122E0,3.820318E0,0E0,0E0,0E0,0E0,0E0,0E0,0E0,0E0],"parents":[2147483647,0,0,2,2,3,3,4,4,5,5,6,6,7,7,8,8],"right_children":[2,-1,4,6,8,10,12,14,16,-1,-1,-1,-1,-1,-1,-1,-1],"split_conditions":[1.5E-1,-4.2119127E-2,9.351769E3,1E0,9.549148E3,1.7245E2,3.7E0,3E0,2.58349E4,1.8845422E-2,-4.147084E-2,6.153507E-4,3.3164676E-2,6.579962E-2,-5.3127664E-3,-1.7327579E-2,1.6046407E-2],"split_indices":[8,0,1,12,1,7,3,2,7,0,0,0,0,0,0,0,0],"split_type":[0,0,0,0,0,0,0,0,0,0,0,0,0,0,0,0,0],"sum_hessian":[1.25878265E2,5.314039E0,1.20564224E2,8.254504E1,3.8019188E1,1.1341779E1,7.1203255E1,4.775281E0,3.3243908E1,2.2012694E0,9.14051E0,6.5140686E1,6.062569E0,3.2513654E0,1.5239153E0,1.3761036E1,1.9482872E1],"tree_param":{"num_deleted":"0","num_feature":"14","num_nodes":"17","size_leaf_vector":"1"}},{"base_weights":[-1.7102876E-3,-4.1833054E-2,4.016595E-2,7.013055E-2,-2.1763797E-1,3.750507E-2,8.5372514E-1,2.8448096E-1,-5.5179805E-1,3.1192955E-3,-2.9451242E-2,5.3818384E-3,7.228429E-2,-9.452548E-3,5.7581104E-2,4.663591E-3,-3.9917417E-2],"categories":[],"categories_nodes":[],"categories_segments":[],"categories_sizes":[],"default_left":[0,0,1,1,1,0,0,1,1,0,0,0,0,0,0,0,0],"id":73,"left_children":[1,-1,3,5,7,9,11,13,15,-1,-1,-1,-1,-1,-1,-1,-1],"loss_changes":[4.462442E0,0E0,9.543986E-1,2.7716718E0,2.321877E0,1.6942945E0,1.7601376E0,2.6056447E0,1.3606615E0,0E0,0E0,0E0,0E0,0E0,0E0,0E0,0E0],"parents":[2147483647,0,0,2,2,3,3,4,4,5,5,6,6,7,7,8,8],"right_children":[2,-1,4,6,8,10,12,14,16,-1,-1,-1,-1,-1,-1,-1,-1],"split_conditions":[1.5E-1,-4.1833054E-2,1.248E-1,1.155E-1,3.1E1,4.145E-1,5.07858E3,2.6E1,-4.05E-1,3.1192955E-3,-2.9451242E-2,5.3818384E-3,7.228429E-2,-9.452548E-3,5.7581104E-2,4.663591E-3,-3.9917417E-2],"split_indices":[8,0,6,6,11,8,7,11,5,0,0,0,0,0,0,0,0],"split_type":[0,0,0,0,0,0,0,0,0,0,0,0,0,0,0,0,0],"sum_hessian":[1.2566631E2,5.095244E0,1.2057107E2,1.0866848E2,1.190259E1,1.05330826E2,3.337656E0,4.8154383E0,7.087152E0,1.0217371E2,3.15711E0,1.9994472E0,1.3382088E0,3.6203866E0,1.1950516E0,2.131645E0,4.9555073E0],"tree_param":{"num_deleted":"0","num_feature":"14","num_nodes":"17","size_leaf_vector":"1"}},{"base_weights":[-1.5329355E-3,-4.154092E-2,3.865641E-2,2.5056247E-2,3.101154E-2,5.5117123E-2,-5.699023E-1,-5.0789374E-3,6.197812E-3,-4.2118043E-2,1.6263973E-2],"categories":[],"categories_nodes":[],"categories_segments":[],"categories_sizes":[],"default_left":[0,0,1,0,0,0,1,0,0,0,0],"id":74,"left_children":[1,-1,3,5,-1,7,9,-1,-1,-1,-1],"loss_changes":[4.244722E0,0E0,9.455425E-1,2.1735911E0,0E0,1.2522812E0,1.7005466E0,0E0,0E0,0E0,0E0],"parents":[2147483647,0,0,2,2,3,3,5,5,6,6],"right_children":[2,-1,4,6,-1,8,10,-1,-1,-1,-1],"split_conditions":[1.5E-1,-4.154092E-2,1.999E-1,4.17E-1,3.101154E-2,1E0,2.58349E4,-5.0789374E-3,6.197812E-3,-4.2118043E-2,1.6263973E-2],"split_indices":[8,0,6,8,0,12,7,0,0,0,0],"split_type":[0,0,0,0,0,0,0,0,0,0,0],"sum_hessian":[1.2539671E2,4.886838E0,1.2050987E2,1.1877538E2,1.7344886E0,1.139265E2,4.848891E0,3.462815E1,7.929834E1,3.7626822E0,1.0862085E0],"tree_param":{"num_deleted":"0","num_feature":"14","num_nodes":"11","size_leaf_vector":"1"}},{"base_weights":[-1.8040751E-3,-4.1242853E-2,3.674473E-2,-2.2923859E-2,1.7054008E-1,-4.9723536E-1,6.593016E-2,1.142769E0,3.9621647E-2,-3.2523092E-2,3.3454042E-2,7.3711695E-3,-1.8726857E-2,-6.748363E-3,7.852924E-2,-1.6612953E-2,1.5075894E-2],"categories":[],"categories_nodes":[],"categories_segments":[],"categories_sizes":[],"default_left":[0,0,0,0,0,1,1,0,0,0,0,0,0,0,0,0,0],"id":75,"left_children":[1,-1,3,5,7,9,11,13,15,-1,-1,-1,-1,-1,-1,-1,-1],"loss_changes":[4.0338955E0,0E0,9.738701E-1,3.611122E0,4.7394075E0,2.8501766E0,2.6537766E0,2.6309948E0,3.4277253E0,0E0,0E0,0E0,0E0,0E0,0E0,0E0,0E0],"parents":[2147483647,0,0,2,2,3,3,4,4,5,5,6,6,7,7,8,8],"right_children":[2,-1,4,6,8,10,12,14,16,-1,-1,-1,-1,-1,-1,-1,-1],"split_conditions":[1.5E-1,-4.1242853E-2,9.444453E3,1E0,9.549148E3,6.4E1,8.15247E3,2.65E-1,2.58349E4,-3.2523092E-2,3.3454042E-2,7.3711695E-3,-1.8726857E-2,-6.748363E-3,7.852924E-2,-1.6612953E-2,1.5075894E-2],"split_indices":[8,0,1,12,1,11,7,0,7,0,0,0,0,0,0,0,0],"split_type":[0,0,0,0,0,0,0,0,0,0,0,0,0,0,0,0,0],"sum_hessian":[1.25185814E2,4.6883087E0,1.20497505E2,8.390648E1,3.6591026E1,1.2513277E1,7.1393196E1,3.4252808E0,3.3165745E1,1.1451159E1,1.0621185E0,6.080807E1,1.0585127E1,1.0308908E0,2.39439E0,1.3594091E1,1.9571655E1],"tree_param":{"num_deleted":"0","num_feature":"14","num_nodes":"17","size_leaf_vector":"1"}},{"base_weights":[-1.6790247E-3,-4.0938973E-2,3.535049E-2,1.4890515E-2,4.2213643E-1,4.364136E-2,-6.836464E-1,-4.1790284E-2,1.0474486E0,2.8032137E-2,8.3558616E-4,-4.2078864E-2,-3.7238074E-3,8.214814E-2,-2.8940341E-3],"categories":[],"categories_nodes":[],"categories_segments":[],"categories_sizes":[],"default_left":[0,0,0,1,0,0,0,0,0,0,0,0,0,0,0],"id":76,"left_children":[1,-1,3,5,7,9,11,-1,13,-1,-1,-1,-1,-1,-1],"loss_changes":[3.8379853E0,0E0,9.543586E-1,2.3661318E0,5.6439567E0,1.5593011E0,3.8551903E-1,0E0,3.0526085E0,0E0,0E0,0E0,0E0,0E0,0E0],"parents":[2147483647,0,0,2,2,3,3,4,4,5,5,6,6,8,8],"right_children":[2,-1,4,6,8,10,12,-1,14,-1,-1,-1,-1,-1,-1],"split_conditions":[1.5E-1,-4.0938973E-2,3E0,8.2E1,6.5E1,4.2E-3,9.2E1,-4.1790284E-2,9.532156E3,2.8032137E-2,8.3558616E-4,-4.2078864E-2,-3.7238074E-3,8.214814E-2,-2.8940341E-3],"split_indices":[8,0,10,11,11,6,11,0,1,0,0,0,0,0,0],"split_type":[0,0,0,0,0,0,0,0,0,0,0,0,0,0,0],"sum_hessian":[1.24890274E2,4.499171E0,1.20391106E2,1.15328995E2,5.0621076E0,1.1167032E2,3.6586764E0,1.5690414E0,3.493066E0,4.5475035E0,1.0712282E2,2.60246E0,1.0562164E0,1.953945E0,1.539121E0],"tree_param":{"num_deleted":"0","num_feature":"14","num_nodes":"15","size_leaf_vector":"1"}},{"base_weights":[-1.8262011E-3,-4.0629447E-2,3.3712562E-2,1.2394002E-2,3.958627E-1,4.529734E-2,-7.3676354E-1,5.6950875E-2,-1.309568E-1,6.791886E-4,2.5212526E-2,-4.757418E-2,-1.6994467E-3,-3.858261E-2,2.2449132E-2],"categories":[],"categories_nodes":[],"categories_segments":[],"categories_sizes":[],"default_left":[0,0,1,1,0,1,0,0,0,0,0,0,0,0,0],"id":77,"left_children":[1,-1,3,5,7,9,11,-1,13,-1,-1,-1,-1,-1,-1],"loss_changes":[3.6496668E0,0E0,9.323295E-1,2.884833E0,2.7787433E0,1.6197355E0,7.108166E-1,0E0,2.1400816E0,0E0,0E0,0E0,0E0,0E0,0E0],"parents":[2147483647,0,0,2,2,3,3,4,4,5,5,6,6,8,8],"right_children":[2,-1,4,6,8,10,12,-1,14,-1,-1,-1,-1,-1,-1],"split_conditions":[1.5E-1,-4.0629447E-2,2.1E-1,1.4E-1,2.29E-1,8E-2,9.324061E4,5.6950875E-2,9.328942E3,6.791886E-4,2.5212526E-2,-4.757418E-2,-1.6994467E-3,-3.858261E-2,2.2449132E-2],"split_indices":[8,0,5,5,8,5,7,0,1,0,0,0,0,0,0],"split_type":[0,0,0,0,0,0,0,0,0,0,0,0,0,0,0],"sum_hessian":[1.2471439E2,4.3189635E0,1.2039543E2,1.14678894E2,5.7165375E0,1.1075406E2,3.924833E0,1.8893181E0,3.8272192E0,1.0455868E2,6.195386E0,2.7352355E0,1.1895976E0,1.6613015E0,2.1659179E0],"tree_param":{"num_deleted":"0","num_feature":"14","num_nodes":"15","size_leaf_vector":"1"}},{"base_weights":[-1.97356E-3,-4.0314432E-2,3.215536E-2,3.6052972E-1,9.388803E-3,7.967541E-1,-2.6972356E-1,-7.4890345E-2,1.2987475E-1,5.4550078E-2,-5.689188E-4,-3.2697402E-2,1.922518E-2,9.392813E-4,-2.7206695E-2,-4.101239E-3,2.9515887E-2],"categories":[],"categories_nodes":[],"categories_segments":[],"categories_sizes":[],"default_left":[0,0,0,0,0,1,1,1,0,0,0,0,0,0,0,0,0],"id":78,"left_children":[1,-1,3,5,7,9,11,13,15,-1,-1,-1,-1,-1,-1,-1,-1],"loss_changes":[3.4712284E0,0E0,9.039178E-1,2.370901E0,1.172623E0,1.1745546E0,1.2455381E0,3.0001469E0,4.683012E0,0E0,0E0,0E0,0E0,0E0,0E0,0E0,0E0],"parents":[2147483647,0,0,2,2,3,3,4,4,5,5,6,6,7,7,8,8],"right_children":[2,-1,4,6,8,10,12,14,16,-1,-1,-1,-1,-1,-1,-1,-1],"split_conditions":[1.5E-1,-4.0314432E-2,1.6E-1,3.55E-1,2E0,8.27443E3,1.35E-1,8.67E-2,3.5E-2,5.4550078E-2,-5.689188E-4,-3.2697402E-2,1.922518E-2,9.392813E-4,-2.7206695E-2,-4.101239E-3,2.9515887E-2],"split_indices":[8,0,8,0,3,7,5,6,5,0,0,0,0,0,0,0,0],"split_type":[0,0,0,0,0,0,0,0,0,0,0,0,0,0,0,0,0],"sum_hessian":[1.2451004E2,4.147246E0,1.2036279E2,6.8419356E0,1.1352086E2,3.887237E0,2.9546986E0,6.701955E1,4.6501312E1,2.5930567E0,1.2941804E0,1.8617365E0,1.0929621E0,5.6666977E1,1.0352569E1,3.2408512E1,1.40928E1],"tree_param":{"num_deleted":"0","num_feature":"14","num_nodes":"17","size_leaf_vector":"1"}},{"base_weights":[-1.944825E-3,-3.9994124E-2,3.0847609E-2,1.2298086E-1,-4.8423216E-2,1.6693778E-1,-4.572681E-1,3.074659E-1,-1.6404599E-1,4.984087E-3,4.528601E-2,-4.5203492E-2,1.8164992E-2,2.8448952E-2,-2.7583634E-2,-1.0811106E-2,2.8264506E-2],"categories":[],"categories_nodes":[],"categories_segments":[],"categories_sizes":[],"default_left":[0,0,0,1,0,0,1,0,0,0,0,0,0,0,0,0,0],"id":79,"left_children":[1,-1,3,5,7,9,11,13,15,-1,-1,-1,-1,-1,-1,-1,-1],"loss_changes":[3.3035429E0,0E0,8.920508E-1,1.5146892E0,2.7634788E0,2.5508208E0,1.8824719E0,4.024558E0,2.04078E0,0E0,0E0,0E0,0E0,0E0,0E0,0E0,0E0],"parents":[2147483647,0,0,2,2,3,3,4,4,5,5,6,6,7,7,8,8],"right_children":[2,-1,4,6,8,10,12,14,16,-1,-1,-1,-1,-1,-1,-1,-1],"split_conditions":[1.5E-1,-3.9994124E-2,4.7E1,5.703037E4,1E0,9.132601E3,-2.5E-2,3.3E0,3E0,4.984087E-3,4.528601E-2,-4.5203492E-2,1.8164992E-2,2.8448952E-2,-2.7583634E-2,-1.0811106E-2,2.8264506E-2],"split_indices":[8,0,11,7,2,1,5,3,10,0,0,0,0,0,0,0,0],"split_type":[0,0,0,0,0,0,0,0,0,0,0,0,0,0,0,0,0],"sum_hessian":[1.2430875E2,3.9836E0,1.2032515E2,5.5392868E1,6.493228E1,5.2154213E1,3.2386563E0,1.5515636E1,4.941664E1,4.8842678E1,3.3115315E0,2.031006E0,1.2076501E0,1.2153858E1,3.3617783E0,4.6774002E1,2.6426396E0],"tree_param":{"num_deleted":"0","num_feature":"14","num_nodes":"17","size_leaf_vector":"1"}},{"base_weights":[-1.912707E-3,-3.9668705E-2,2.9623406E-2,1.7650405E-2,3.299475E-2,-1.1621902E-1,8.78834E-2,5.3367287E-2,-9.517557E-3,-3.5978362E-3,1.4889026E-2],"categories":[],"categories_nodes":[],"categories_segments":[],"categories_sizes":[],"default_left":[0,0,1,0,0,0,1,0,0,0,0],"id":80,"left_children":[1,-1,3,5,-1,7,9,-1,-1,-1,-1],"loss_changes":[3.1446304E0,0E0,9.031043E-1,1.1383389E0,0E0,3.863598E0,2.6808736E0,0E0,0E0,0E0,0E0],"parents":[2147483647,0,0,2,2,3,3,5,5,6,6],"right_children":[2,-1,4,6,-1,8,10,-1,-1,-1,-1],"split_conditions":[1.5E-1,-3.9668705E-2,1.4655318E6,5.44E-2,3.299475E-2,-2.15E-1,2.02434E3,5.3367287E-2,-9.517557E-3,-3.5978362E-3,1.4889026E-2],"split_indices":[8,0,7,6,0,5,7,0,0,0,0],"split_type":[0,0,0,0,0,0,0,0,0,0,0],"sum_hessian":[1.2404712E2,3.8276255E0,1.2021949E2,1.1898715E2,1.2323439E0,4.071896E1,7.826819E1,1.6103789E0,3.9108578E1,4.4805355E1,3.3462837E1],"tree_param":{"num_deleted":"0","num_feature":"14","num_nodes":"11","size_leaf_vector":"1"}},{"base_weights":[-1.4815055E-3,-3.933839E-2,2.8850472E-2,1.5134646E-1,-3.0726602E-2,1.3968144E-2,5.163661E-1,-4.8787165E-1,1.6366519E-2,3.3010215E-2,-5.862208E-3,-1.6057206E-2,3.99669E-2,-3.931069E-2,1.9472059E-2,-6.1021335E-3,9.65225E-3],"categories":[],"categories_nodes":[],"categories_segments":[],"categories_sizes":[],"default_left":[0,0,1,0,0,0,0,1,0,0,0,0,0,0,0,0,0],"id":81,"left_children":[1,-1,3,5,7,9,11,13,15,-1,-1,-1,-1,-1,-1,-1,-1],"loss_changes":[2.9968796E0,0E0,8.89056E-1,1.9897169E0,1.7811266E0,2.6179237E0,2.830781E0,2.3280468E0,1.873212E0,0E0,0E0,0E0,0E0,0E0,0E0,0E0,0E0],"parents":[2147483647,0,0,2,2,3,3,4,4,5,5,6,6,7,7,8,8],"right_children":[2,-1,4,6,8,10,12,14,16,-1,-1,-1,